{"learner":{"attributes":{"best_iteration":"89","best_ntree_limit":"90"},"feature_names":["area_m2","condition","bathroom","author","region","floor","housing_fund","dist_to_center","num_rooms","zone_type"],"feature_types":["float","c","int","c","c","c","c","float","int","c"],"gradient_booster":{"model":{"gbtree_model_param":{"num_parallel_tree":"1","num_trees":"90","size_leaf_vector":"0"},"tree_info":[0,0,0,0,0,0,0,0,0,0,0,0,0,0,0,0,0,0,0,0,0,0,0,0,0,0,0,0,0,0,0,0,0,0,0,0,0,0,0,0,0,0,0,0,0,0,0,0,0,0,0,0,0,0,0,0,0,0,0,0,0,0,0,0,0,0,0,0,0,0,0,0,0,0,0,0,0,0,0,0,0,0,0,0,0,0,0,0,0,0],"trees":[{"base_weights":[8.911742E0,5.9116238E1,8.758703E0,1.0195687E1,7.7906604E0,7.9555993E0,1.0886145E1,1.3898079E1,7.482267E0,9.034748E0,6.2575073E0,1.1107556E1,8.500309E0,1.4676575E1,8.006483E0,5.8961644E0,8.427666E0,1.2858581E1,8.565418E0,5.08527E0,7.3974056E0,1.1650959E1,1.055794E1,6.13318E0,4.3338504E0,1.7741909E1,1.3229613E1,7.266946E0,5.012716E0,8.907878E0,6.922589E0,1.0458418E1,6.9164457E0,1.0422791E1,7.804036E0,6.262618E0,4.485248E0,5.8079486E0,4.316867E0,1.1834983E1,1.0701172E1,9.603893E0,7.675345E0,1.447463E1,7.8918514E0,9.6542425E0,7.1371346E0,8.298509E0,6.460362E0,6.071562E0,4.3128953E0,9.311061E0,8.107566E0,7.8611655E0,6.4461794E0,4.986827E0,8.620389E0,8.583708E0,4.579412E0,5.522885E0,2.894152E0,5.5284514E0,4.0792093E0,1.1125972E1,8.479521E0,8.657648E0,7.836962E0,6.3293157E0,7.3033233E0,7.2615094E0,7.485478E0,4.918445E0,4.186946E0,5.39204E0,6.7307596E0,3.442432E0,3.7922988E0,1.0282775E1,8.929595E0,9.40509E0,7.4432836E0,5.1720433E0,6.8696465E0,5.6921496E0,6.9828644E0,6.48395E0,5.2321296E0,2.2143154E0,5.173706E0,3.0523314E0,1.8331119E0,8.735076E0,7.3521023E0,4.636283E0,8.113682E0,5.680953E0,4.679568E0,3.9052153E0,2.5363567E0,5.5363975E0,4.1340284E0,2.3633263E0,3.291616E0,7.5241632E0,6.3495445E0,6.811322E0,5.9627686E0,5.603124E0,6.9923344E0,4.1774077E0,5.5532727E0,4.097682E0,2.7714696E0,5.415961E0,4.35417E0],"categories":[0,1,2,3,4,5,7,8,9,10,11,12,13,14,15,16,17,18,19,20,21,0,0,1,3,4,6,7,8,10,11,12,13,14,15,16,17,18,19,20,21,0,0,0,1,2,5,6,7,9,10,11,13,14,15,19,20,21,0,1,2,3,4,5,6,7,8,9,10,11,12,13,15,17,18,19,20,21,0,1,3,4,6,7,8,9,10,11,12,13,14,15,17,18,19,20,21,0,0,1,2,3,4,5,6,7,8,9,10,11,13,14,15,17,18,19,20,21,0,1,3,4,5,6,7,8,9,10,11,12,13,14,15,16,18,19,20,21,0,1,3,4,5,6,7,8,9,10,11,13,14,16,17,18,19,20,21,0,0,1,3,4,6,7,8,9,10,11,12,13,14,15,16,17,18,19,20,21,0,1,3,4,5,6,7,8,10,11,12,13,14,15,16,17,18,19,20,21,0,0,0,0,0,0,0,0,1,2,3,5,6,7,8,9,10,11,12,13,14,15,17,19,21,0,1,2,3,4,5,7,8,9,10,11,12,13,14,16,17,19,21,0,1,3,4,5,6,7,8,9,10,11,13,16,0,0,1,3,4,5,6,7,8,9,10,11,12,13,15,16,17,18,19,20,21,0,1,2,3,4,5,6,7,8,9,10,11,13,15,0,1,2,3,5,6,7,8,9,10,11,12,13,14,15,17,18,19,20,21,0,1,2,3,4,5,6,7,8,9,10,11,12,0,1,3,4,5,6,7,8,9,10,11,13,14,16,17,18,19,20,21,0,0,1,3,4,5,6,7,8,9,10,11,12,13,14,15,17,18,19,20,21,0,1,2,3,4,5,6,7,8,9,10,11,12,13,14,15,17,18,19,20,21,0,0,0,1,2,4,5,6,7,8,9,10,11,13,16,17,18,20,21],"categories_nodes":[2,3,7,8,10,11,13,16,17,18,19,20,22,25,26,28,36,39,41,47,48,49,51,52,53,54,57,62,63,65,74,76,77,78,79,80,84],"categories_segments":[0,21,22,41,42,43,58,78,97,98,118,138,157,158,178,198,199,200,201,202,203,204,205,223,241,254,255,275,289,309,322,341,342,362,383,384,385],"categories_sizes":[21,1,19,1,1,15,20,19,1,20,20,19,1,20,20,1,1,1,1,1,1,1,18,18,13,1,20,14,20,13,19,1,20,21,1,1,17],"default_left":[0,0,1,1,0,0,0,1,1,0,1,1,0,1,0,0,1,1,1,1,1,0,1,0,0,1,1,0,1,0,0,0,0,0,0,0,1,0,0,1,0,1,0,0,0,0,0,1,1,1,0,1,1,1,1,0,0,1,0,0,0,0,1,1,0,1,0,0,0,0,0,0,0,0,1,0,1,1,1,1,1,0,0,0,1,0,0,0,0,0,0,0,0,0,0,0,0,0,0,0,0,0,0,0,0,0,0,0,0,0,0,0,0,0,0],"id":0,"left_children":[1,-1,3,5,7,9,11,13,15,17,19,21,23,25,-1,27,29,31,33,35,37,39,41,-1,-1,43,45,47,49,51,53,-1,-1,55,57,59,61,-1,-1,63,65,67,-1,-1,-1,-1,-1,69,71,73,75,77,79,81,83,-1,-1,85,-1,-1,-1,87,89,91,-1,93,-1,-1,-1,-1,95,-1,-1,97,99,-1,101,103,105,107,109,-1,-1,111,113,-1,-1,-1,-1,-1,-1,-1,-1,-1,-1,-1,-1,-1,-1,-1,-1,-1,-1,-1,-1,-1,-1,-1,-1,-1,-1,-1,-1,-1,-1],"loss_changes":[3.712703E4,0E0,4.4638438E3,1.9697188E3,3.595375E3,5.3705664E2,4.776172E2,9.323242E1,2.7409766E3,2.8142578E2,1.4354346E2,2.0952344E2,2.5083496E1,1.864668E2,0E0,8.179922E2,8.0358594E2,4.7091064E1,1.9761816E2,2.9401001E1,4.138916E1,1.5589844E1,1.2453516E2,0E0,0E0,2.7274072E2,1.240332E1,1.9742969E2,2.9923926E2,2.4410938E2,1.0053418E2,0E0,0E0,2.5260059E2,9.147363E1,5.121637E1,6.7263794E0,0E0,0E0,6.3945312E0,3.0860352E1,1.8325195E1,0E0,0E0,0E0,0E0,0E0,1.5772217E2,2.060254E1,5.6435547E1,7.1129395E1,1.6815625E2,2.2055664E2,4.9091797E1,5.68125E1,0E0,0E0,2.0747559E1,0E0,0E0,0E0,3.456476E1,7.640869E0,2.8427734E1,0E0,6.604651E1,0E0,0E0,0E0,0E0,1.599707E1,0E0,0E0,1.7816406E1,5.6848877E1,0E0,4.488684E1,4.1339844E1,9.642578E1,4.058496E1,1.1983789E2,0E0,0E0,1.1246338E1,3.834424E1,0E0,0E0,0E0,0E0,0E0,0E0,0E0,0E0,0E0,0E0,0E0,0E0,0E0,0E0,0E0,0E0,0E0,0E0,0E0,0E0,0E0,0E0,0E0,0E0,0E0,0E0,0E0,0E0,0E0,0E0],"parents":[2147483647,0,0,2,2,3,3,4,4,5,5,6,6,7,7,8,8,9,9,10,10,11,11,12,12,13,13,15,15,16,16,17,17,18,18,19,19,20,20,21,21,22,22,25,25,26,26,27,27,28,28,29,29,30,30,33,33,34,34,35,35,36,36,39,39,40,40,41,41,47,47,48,48,49,49,50,50,51,51,52,52,53,53,54,54,57,57,61,61,62,62,63,63,65,65,70,70,73,73,74,74,76,76,77,77,78,78,79,79,80,80,83,83,84,84],"right_children":[2,-1,4,6,8,10,12,14,16,18,20,22,24,26,-1,28,30,32,34,36,38,40,42,-1,-1,44,46,48,50,52,54,-1,-1,56,58,60,62,-1,-1,64,66,68,-1,-1,-1,-1,-1,70,72,74,76,78,80,82,84,-1,-1,86,-1,-1,-1,88,90,92,-1,94,-1,-1,-1,-1,96,-1,-1,98,100,-1,102,104,106,108,110,-1,-1,112,114,-1,-1,-1,-1,-1,-1,-1,-1,-1,-1,-1,-1,-1,-1,-1,-1,-1,-1,-1,-1,-1,-1,-1,-1,-1,-1,-1,-1,-1,-1],"split_conditions":[1.1E1,5.9116238E1,NaN,NaN,2.1E1,5.548638E1,1.3E2,NaN,NaN,1E0,NaN,NaN,1.84E2,NaN,8.006483E0,4.6E1,NaN,NaN,NaN,NaN,NaN,9.1E1,NaN,6.13318E0,4.3338504E0,NaN,NaN,3.1E1,NaN,7.3E1,2E0,1.0458418E1,6.9164457E0,3.5361435E1,2E0,8.6E1,NaN,5.8079486E0,4.316867E0,NaN,9.9E1,NaN,7.675345E0,1.447463E1,7.8918514E0,9.6542425E0,7.1371346E0,NaN,NaN,NaN,5.9E1,NaN,NaN,NaN,NaN,4.986827E0,8.620389E0,NaN,4.579412E0,5.522885E0,2.894152E0,7.6E1,NaN,NaN,8.479521E0,NaN,7.836962E0,6.3293157E0,7.3033233E0,7.2615094E0,2.6E1,4.918445E0,4.186946E0,7.6E1,NaN,3.442432E0,NaN,NaN,NaN,NaN,NaN,5.1720433E0,6.8696465E0,9.4E1,NaN,6.48395E0,5.2321296E0,2.2143154E0,5.173706E0,3.0523314E0,1.8331119E0,8.735076E0,7.3521023E0,4.636283E0,8.113682E0,5.680953E0,4.679568E0,3.9052153E0,2.5363567E0,5.5363975E0,4.1340284E0,2.3633263E0,3.291616E0,7.5241632E0,6.3495445E0,6.811322E0,5.9627686E0,5.603124E0,6.9923344E0,4.1774077E0,5.5532727E0,4.097682E0,2.7714696E0,5.415961E0,4.35417E0],"split_indices":[0,0,4,6,0,0,0,4,6,8,3,5,0,5,0,0,4,3,5,5,5,0,3,0,0,4,4,0,1,0,8,0,0,0,8,0,1,0,0,3,0,1,0,0,0,0,0,1,1,3,0,5,5,5,3,0,0,5,0,0,0,0,5,5,0,5,0,0,0,0,0,0,0,0,5,0,3,4,4,3,3,0,0,0,5,0,0,0,0,0,0,0,0,0,0,0,0,0,0,0,0,0,0,0,0,0,0,0,0,0,0,0,0,0,0],"split_type":[0,0,1,1,0,0,0,1,1,0,1,1,0,1,0,0,1,1,1,1,1,0,1,0,0,1,1,0,1,0,0,0,0,0,0,0,1,0,0,1,0,1,0,0,0,0,0,1,1,1,0,1,1,1,1,0,0,1,0,0,0,0,1,1,0,1,0,0,0,0,0,0,0,0,1,0,1,1,1,1,1,0,0,0,1,0,0,0,0,0,0,0,0,0,0,0,0,0,0,0,0,0,0,0,0,0,0,0,0,0,0,0,0,0,0],"sum_hessian":[3.243E3,6E0,3.237E3,1.301E3,1.936E3,3.08E2,9.93E2,9.2E1,1.844E3,1.87E2,1.21E2,9.07E2,8.6E1,6.8E1,2.4E1,6.9E2,1.154E3,1.9E1,1.68E2,6.1E1,6E1,4.51E2,4.56E2,7.6E1,1E1,2E1,4.8E1,2.69E2,4.21E2,8.73E2,2.81E2,1E1,9E0,4.7E1,1.21E2,1.9E1,4.2E1,3.3E1,2.7E1,3.73E2,7.8E1,1.4E2,3.16E2,1.3E1,7E0,3.9E1,9E0,1.16E2,1.53E2,1.66E2,2.55E2,5.77E2,2.96E2,9.2E1,1.89E2,1.8E1,2.9E1,7.3E1,4.8E1,1E1,9E0,1E1,3.2E1,1.11E2,2.62E2,1.7E1,6.1E1,8.7E1,5.3E1,3.1E1,8.5E1,6.7E1,8.6E1,8.4E1,8.2E1,1.16E2,1.39E2,1.59E2,4.18E2,9.8E1,1.98E2,7.6E1,1.6E1,8.1E1,1.08E2,4.3E1,3E1,5E0,5E0,2.6E1,6E0,3.2E1,7.9E1,1.1E1,6E0,4.5E1,4E1,7.5E1,9E0,3.2E1,5E1,9.7E1,4.2E1,1.12E2,4.7E1,1.38E2,2.8E2,3.1E1,6.7E1,5.1E1,1.47E2,7.3E1,8E0,5.2E1,5.6E1],"tree_param":{"num_deleted":"0","num_feature":"10","num_nodes":"115","size_leaf_vector":"0"}},{"base_weights":[2.7337809E0,2.0918055E1,2.6788507E0,2.8968043E0,2.0624998E0,2.3911965E0,3.1166155E0,6.161067E0,1.9238747E0,3.8179183E0,2.1197624E0,3.4933324E0,2.9620337E0,7.536786E0,4.6253443E0,2.2256207E0,1.4088871E0,6.6162233E0,2.4568305E0,2.659986E0,1.7163821E0,3.775235E0,2.6958337E0,3.0562098E0,2.3566084E0,4.4973173E0,1.0467825E0,3.6116245E0,2.076487E0,2.1222038E0,1.0496434E0,1.6740515E0,7.9083896E0,4.9111567E0,1.7892337E0,2.556495E0,5.0580645E0,1.8886011E0,7.8086716E-1,4.2387524E0,3.658515E0,2.9641314E0,1.0893072E-1,2.9522686E0,5.674447E0,3.8216376E0,1.6825072E0,2.8337424E0,5.037949E0,2.506151E0,1.8755084E0,1.9592317E0,3.0473762E0,2.5580735E0,8.8737124E-1,3.546092E0,8.778063E0,2.680125E0,4.1683564E0,1.6496987E0,9.1962284E-1,2.443506E0,3.7475932E0,1.754696E0,4.259567E0,1.6648152E0,5.1788366E-1,1.8497488E0,3.8060446E0,3.6850147E0,2.1515996E0,6.4011705E-1,-3.4233332E-1,2.8595657E0,3.6176765E0,6.4304767E0,1.8394898E0,4.761161E0,1.5441692E0,1.193389E0,3.395021E0,3.9680429E0,1.1804096E0,2.2000706E0,4.157707E0,2.237565E0,1.0600982E0,1.49539E0,2.3093936E0,1.0145866E0,2.0979917E0,1.2331154E0,3.4475175E-1,-4.688845E-2,1.632575E0,1.7573589E0,9.860057E-2,1.3531642E0,6.9574267E-1,5.2982674E0,1.6262693E0,4.5392403E-1,1.6094068E0,5.8415943E-1,-3.6188424E-1,1.6551626E0,5.877037E-2,2.455295E0,3.0568433E0,7.8068864E-1,3.1126964E0,1.6695507E0,-1.3139334E-1,2.7894416E0,1.9537956E0,3.1633604E0,1.2303567E0,3.9830592E0,6.1085734E0,2.0497134E0,3.5362327E0,3.1923142E-1,2.0840437E0,2.6928966E0,1.2932339E0,3.3290315E0,1.9639528E0,1.6534536E0,6.81909E-1,2.0725508E0,3.6217008E0,1.2178522E0,1.7871554E0,6.540835E-1,2.1863542E0,1.4055512E0,4.9407423E-1,1.0542984E0,1.7664593E0,9.604213E-1,3.4313634E-1,4.5354262E-1,-5.537129E-1],"categories":[0,1,3,4,5,7,8,9,10,12,13,14,15,18,19,20,21,0,0,1,2,6,10,11,12,13,14,15,17,19,20,21,0,1,2,3,4,5,6,7,8,9,10,11,12,13,15,16,17,18,19,20,21,0,1,2,3,4,6,7,8,9,10,11,12,13,14,15,16,17,18,20,21,0,1,2,3,4,5,6,7,8,9,10,11,12,13,14,17,18,19,20,21,0,0,1,2,3,4,5,7,8,9,10,11,12,13,14,15,17,18,19,20,21,0,1,2,5,6,7,8,9,10,11,12,13,14,15,16,17,18,19,21,0,1,2,3,4,5,6,7,8,9,10,11,12,13,16,17,18,20,21,0,1,3,4,5,6,7,8,9,10,11,13,14,15,16,17,18,19,20,21,0,1,3,4,0,1,3,4,5,6,7,8,9,10,11,12,13,15,16,17,18,21,0,0,1,3,4,5,6,7,8,9,10,11,12,13,14,19,21,2,14,0,1,2,4,5,0,0,1,2,3,4,5,6,7,8,9,10,11,13,14,0,1,2,3,4,5,6,7,8,9,10,11,12,13,14,15,16,17,18,20,21,0,0,1,3,4,5,6,7,8,9,10,11,13,14,15,19,20,21,0,1,2,3,4,5,6,7,8,10,11,12,14,15,16,17,18,19,20,21],"categories_nodes":[2,3,6,7,8,9,10,11,15,28,34,35,45,51,54,66,67,75,80,81,85,86,91],"categories_segments":[0,17,18,32,53,73,93,94,114,133,152,172,176,194,195,211,213,218,219,233,254,255,272],"categories_sizes":[17,1,14,21,20,20,1,20,19,19,20,4,18,1,16,2,5,1,14,21,1,17,20],"default_left":[0,0,1,1,0,0,1,1,1,1,1,1,0,0,0,1,0,0,0,0,0,0,0,0,0,0,0,0,1,0,0,0,0,0,1,1,0,0,0,0,0,0,0,0,0,1,0,0,0,0,0,1,0,0,1,0,0,0,0,0,0,0,0,0,0,0,1,1,0,0,0,0,0,0,0,1,0,0,0,0,1,1,0,0,0,1,1,0,0,0,0,1,0,0,0,0,0,0,0,0,0,0,0,0,0,0,0,0,0,0,0,0,0,0,0,0,0,0,0,0,0,0,0,0,0,0,0,0,0,0,0,0,0,0,0,0,0,0,0,0,0,0,0],"id":1,"left_children":[1,-1,3,5,7,9,11,13,15,17,19,21,23,-1,25,27,29,31,33,35,37,39,41,43,45,-1,-1,47,49,51,53,-1,55,57,59,61,-1,63,65,-1,67,69,71,73,75,77,79,81,-1,83,85,87,-1,89,91,-1,-1,-1,-1,-1,93,95,-1,97,99,101,103,105,107,109,111,-1,-1,113,115,117,-1,119,-1,121,123,125,-1,127,129,131,133,135,137,-1,-1,139,141,-1,-1,-1,-1,-1,-1,-1,-1,-1,-1,-1,-1,-1,-1,-1,-1,-1,-1,-1,-1,-1,-1,-1,-1,-1,-1,-1,-1,-1,-1,-1,-1,-1,-1,-1,-1,-1,-1,-1,-1,-1,-1,-1,-1,-1,-1,-1,-1,-1,-1],"loss_changes":[4.7970293E3,0E0,4.3192578E2,2.6194922E2,4.755923E2,2.7729834E2,9.1756836E1,1.6961243E2,1.2593408E2,4.3178186E2,1.3097266E2,1.03160645E2,6.387793E1,0E0,1.1628418E2,1.0301074E2,7.691577E1,1.9525757E2,1.2422864E2,1.1385571E2,5.589392E1,8.326807E1,8.833118E1,2.6988965E2,1.5627887E2,0E0,0E0,1.278609E2,3.802002E1,3.2642914E1,4.8676956E1,0E0,3.4346252E2,7.2393494E0,2.9759232E1,7.421057E1,0E0,9.039697E1,1.247065E1,0E0,8.680762E1,6.36886E1,6.244665E0,5.5557617E1,8.022888E1,7.1406006E1,9.136902E1,5.0668457E1,0E0,6.998901E1,9.343359E1,1.3784393E1,0E0,7.3199234E0,3.4401047E1,0E0,0E0,0E0,0E0,0E0,3.5617645E1,3.7856445E1,0E0,3.7244385E1,9.05325E1,7.313423E0,1.4469267E1,2.3988579E1,4.465674E1,1.15940735E2,3.053595E1,0E0,0E0,6.116455E1,1.9471094E2,2.7022095E1,0E0,9.382935E0,0E0,1.1440868E2,1.3582886E1,1.2099091E1,0E0,2.3774414E1,1.9706299E1,3.2566772E1,2.434491E1,1.649054E1,7.3012085E0,0E0,0E0,1.1274048E1,2.5219986E1,0E0,0E0,0E0,0E0,0E0,0E0,0E0,0E0,0E0,0E0,0E0,0E0,0E0,0E0,0E0,0E0,0E0,0E0,0E0,0E0,0E0,0E0,0E0,0E0,0E0,0E0,0E0,0E0,0E0,0E0,0E0,0E0,0E0,0E0,0E0,0E0,0E0,0E0,0E0,0E0,0E0,0E0,0E0,0E0,0E0,0E0,0E0,0E0,0E0,0E0],"parents":[2147483647,0,0,2,2,3,3,4,4,5,5,6,6,7,7,8,8,9,9,10,10,11,11,12,12,14,14,15,15,16,16,17,17,18,18,19,19,20,20,21,21,22,22,23,23,24,24,27,27,28,28,29,29,30,30,32,32,33,33,34,34,35,35,37,37,38,38,40,40,41,41,42,42,43,43,44,44,45,45,46,46,47,47,49,49,50,50,51,51,53,53,54,54,60,60,61,61,63,63,64,64,65,65,66,66,67,67,68,68,69,69,70,70,73,73,74,74,75,75,77,77,79,79,80,80,81,81,83,83,84,84,85,85,86,86,87,87,88,88,91,91,92,92],"right_children":[2,-1,4,6,8,10,12,14,16,18,20,22,24,-1,26,28,30,32,34,36,38,40,42,44,46,-1,-1,48,50,52,54,-1,56,58,60,62,-1,64,66,-1,68,70,72,74,76,78,80,82,-1,84,86,88,-1,90,92,-1,-1,-1,-1,-1,94,96,-1,98,100,102,104,106,108,110,112,-1,-1,114,116,118,-1,120,-1,122,124,126,-1,128,130,132,134,136,138,-1,-1,140,142,-1,-1,-1,-1,-1,-1,-1,-1,-1,-1,-1,-1,-1,-1,-1,-1,-1,-1,-1,-1,-1,-1,-1,-1,-1,-1,-1,-1,-1,-1,-1,-1,-1,-1,-1,-1,-1,-1,-1,-1,-1,-1,-1,-1,-1,-1,-1,-1,-1,-1],"split_conditions":[1.1E1,2.0918055E1,NaN,NaN,1.9E1,2.6E1,NaN,NaN,NaN,NaN,NaN,NaN,4.7023816E0,7.536786E0,1.7E1,NaN,3.0030782E0,2E1,1.7E1,6.7008004E0,6E0,1.3139694E0,9.7E1,4.4348593E0,5.3E1,4.4973173E0,1.0467825E0,2E0,NaN,9.1E1,2.7E1,1.6740515E0,1.7812556E0,3.1354504E0,NaN,NaN,5.0580645E0,8.1E1,3.9E1,4.2387524E0,1.5473659E0,3.1354504E0,2E0,3.7573326E0,9.6E1,NaN,6.517384E0,4.9E1,5.037949E0,8.7E1,7.1E1,NaN,3.0473762E0,2.1E1,NaN,3.546092E0,8.778063E0,2.680125E0,4.1683564E0,1.6496987E0,3.4832513E0,1.15E2,3.7475932E0,6.6E1,9.3E1,3.4E1,NaN,NaN,3.839338E0,1.8249816E0,4.885719E0,6.4011705E-1,-3.4233332E-1,1.3829236E0,3.9691677E0,NaN,1.8394898E0,5.8122025E0,1.5441692E0,1.01E2,NaN,NaN,1.1804096E0,6.12374E0,3.7111995E0,NaN,NaN,5.7E1,1.8236971E0,1.0145866E0,2.0979917E0,NaN,7.1E1,-4.688845E-2,1.632575E0,1.7573589E0,9.860057E-2,1.3531642E0,6.9574267E-1,5.2982674E0,1.6262693E0,4.5392403E-1,1.6094068E0,5.8415943E-1,-3.6188424E-1,1.6551626E0,5.877037E-2,2.455295E0,3.0568433E0,7.8068864E-1,3.1126964E0,1.6695507E0,-1.3139334E-1,2.7894416E0,1.9537956E0,3.1633604E0,1.2303567E0,3.9830592E0,6.1085734E0,2.0497134E0,3.5362327E0,3.1923142E-1,2.0840437E0,2.6928966E0,1.2932339E0,3.3290315E0,1.9639528E0,1.6534536E0,6.81909E-1,2.0725508E0,3.6217008E0,1.2178522E0,1.7871554E0,6.540835E-1,2.1863542E0,1.4055512E0,4.9407423E-1,1.0542984E0,1.7664593E0,9.604213E-1,3.4313634E-1,4.5354262E-1,-5.537129E-1],"split_indices":[0,0,4,6,0,0,5,5,4,5,1,4,7,0,0,5,7,0,0,7,7,7,0,7,0,0,0,2,5,0,0,0,7,7,5,5,0,0,0,0,7,7,2,7,0,5,7,0,0,0,0,6,0,0,5,0,0,0,0,0,7,0,0,0,0,0,5,5,7,7,7,0,0,7,7,1,0,7,0,0,5,4,0,7,7,6,5,0,7,0,0,4,0,0,0,0,0,0,0,0,0,0,0,0,0,0,0,0,0,0,0,0,0,0,0,0,0,0,0,0,0,0,0,0,0,0,0,0,0,0,0,0,0,0,0,0,0,0,0,0,0,0,0],"split_type":[0,0,1,1,0,0,1,1,1,1,1,1,0,0,0,1,0,0,0,0,0,0,0,0,0,0,0,0,1,0,0,0,0,0,1,1,0,0,0,0,0,0,0,0,0,1,0,0,0,0,0,1,0,0,1,0,0,0,0,0,0,0,0,0,0,0,1,1,0,0,0,0,0,0,0,1,0,0,0,0,1,1,0,0,0,1,1,0,0,0,0,1,0,0,0,0,0,0,0,0,0,0,0,0,0,0,0,0,0,0,0,0,0,0,0,0,0,0,0,0,0,0,0,0,0,0,0,0,0,0,0,0,0,0,0,0,0,0,0,0,0,0,0],"sum_hessian":[3.243E3,6E0,3.237E3,2.39E3,8.47E2,7.26E2,1.664E3,2.7E1,8.2E2,1.15E2,6.11E2,4.81E2,1.183E3,6E0,2.1E1,5.16E2,3.04E2,3.7E1,7.8E1,2.6E2,3.51E2,3.54E2,1.27E2,1.022E3,1.61E2,1.3E1,8E0,4.9E1,4.67E2,1.01E2,2.03E2,9E0,2.8E1,1.6E1,6.2E1,2.55E2,5E0,2.96E2,5.5E1,1.6E1,3.38E2,1.15E2,1.2E1,9.84E2,3.8E1,5E1,1.11E2,4.1E1,8E0,1.47E2,3.2E2,9.5E1,6E0,1.9E1,1.84E2,1.8E1,1E1,9E0,7E0,3.7E1,2.5E1,2.46E2,9E0,2.81E2,1.5E1,1.2E1,4.3E1,2.6E1,3.12E2,6E1,5.5E1,5E0,7E0,8.66E2,1.18E2,3E1,8E0,3.1E1,1.9E1,8.7E1,2.4E1,2E1,2.1E1,1.25E2,2.2E1,2.21E2,9.9E1,4.2E1,5.3E1,6E0,1.3E1,1.12E2,7.2E1,1.5E1,1E1,2.39E2,7E0,2.27E2,5.4E1,5E0,1E1,5E0,7E0,3.3E1,1E1,2E1,6E0,2.06E2,1.06E2,1.4E1,4.6E1,5E1,5E0,4.8E1,8.18E2,7.9E1,3.9E1,2.4E1,6E0,5E0,2.6E1,6.2E1,2.5E1,1.8E1,6E0,1.1E1,9E0,1.1E2,1.5E1,1.1E1,1.1E1,8.7E1,1.34E2,9.4E1,5E0,2.5E1,1.7E1,1.2E1,4.1E1,9.4E1,1.8E1,5.7E1,1.5E1],"tree_param":{"num_deleted":"0","num_feature":"10","num_nodes":"143","size_leaf_vector":"0"}},{"base_weights":[8.4622544E-1,3.799133E0,8.022129E-1,1.5687961E1,3.0551907E-1,9.649686E-1,5.027128E-1,6.5741765E-1,-3.563213E-1,2.8712018E0,9.5315886E-1,-2.682124E0,6.395416E-1,3.4676126E-1,1.1775373E0,-5.9085286E-1,3.7830274E0,1.741176E0,9.274363E-1,-2.2307792E-1,-7.146357E0,9.791256E-1,4.3762222E-1,5.2432615E-1,-3.554088E-1,4.648133E0,1.8171449E-1,1.1158137E0,8.3698696E-1,2.1270473E-1,-1.2412465E0,-1.1116953E0,-6.6457477E0,2.2256916E0,7.744487E-1,5.881705E-1,-5.9611994E-1,7.964157E0,1.1300153E0,-2.1656795E-1,1.2513084E0,1.2175095E0,9.0126413E-1,8.4411377E-1,-6.8690085E-1,1.9665177E-1,-1.8554083E0,6.8137187E-1,3.8418584E0,1.0235391E0,4.0116218E-1,9.0772706E-1,3.5033768E-1,-1.8790877E-1,-3.250197E0,7.2600846E0,3.7201538E0,1.4811485E0,-9.651683E-2,4.8074E-1,-1.0868403E0,1.1400336E0,1.4775791E0,2.050597E0,8.342682E-1,8.90412E-1,6.1604387E-1,1.7471935E-1,1.0752581E0,1.8289562E0,7.01375E0,1.1463073E0,-4.5505348E-1,3.8563877E-2,8.883652E-1,3.1580094E-1,1.171408E0,7.427333E-1,2.380927E-1,7.046236E-1,-5.436359E-1,-3.9787896E0,-5.4900575E-2,9.341737E-2,9.4682705E-1,5.6902327E-2,-1.4375275E0,9.111159E-1,-3.5082482E-4,1.739437E-1,1.1641034E0,2.0560636E-1,8.183379E-1,7.7514E-1,5.3797334E-1,5.7996243E-1,-4.1352102E-1,1.0204977E0,-6.6428494E-1,1.1055154E0,1.248184E-1,2.619283E0,4.677717E-1,6.7581167E0,2.6148036E0,1.1817391E0,6.1038727E-1,3.6162022E-1,-3.615308E-1,8.0392575E-1,-3.7872016E-1,8.058201E-1,1.3953912E-1,9.9652135E-1,1.3888444E-1,-1.4798187E-1,9.868513E-1,2.334506E-1,-6.156309E-2,-8.984642E-2,-5.5453E-1],"categories":[0,1,2,3,4,5,6,7,8,9,10,11,12,13,14,15,16,17,18,19,20,0,1,3,4,5,6,7,8,9,10,11,12,13,14,15,16,17,18,19,20,21,0,1,2,3,4,7,8,9,10,12,13,14,15,18,19,20,21,0,1,2,3,12,0,1,2,3,4,5,6,7,8,11,12,13,14,15,16,17,18,19,20,21,0,2,15,0,0,1,2,3,4,5,6,7,8,9,10,11,12,13,16,17,18,19,20,21,0,1,2,6,8,9,10,11,13,14,15,16,18,19,20,21,0,1,2,3,4,5,6,7,8,9,10,11,13,14,15,17,18,19,0,0,1,2,3,4,5,6,7,8,9,10,11,12,13,14,15,17,18,19,21,0,1,2,3,7,8,9,10,11,13,0,0,0,1,2,3,4,5,7,8,9,10,11,12,13,14,15,16,18,19,20,21,0,1,3,4,5,7,9,10,11,12,13,2,0,0,0,1,2,3,6,7,8,9,10,11,12,13,14,15,16,21,9,0,1,2,3,4,6,7,8,9,10,11,12,13,14,15,16,14,2,18,0,1,2,3,5,6,7,8,9,10,11,12,13,14,15,16,17,18,19,20,21,0,1,2,3,4,5,7,8,9,10,12,13,14,15,18,19,20,21,0,0,0,1,4,5,18,0,0,0,1,2,3,4,5,6,7,8,9,10,11,12,13,14,15,16,17,18,20,21,0,1,2,4,5,6,7,8,9,10,11,12,13,0,0,1,2,3,4,5,6,7,8,9,10,11,13,14,15,16,17,18,19,6,0,0,0,1,3,4,5,6,7,8,14,0,0,1,2,3,4,5,6,7,8,9,10,11,12,13,14,15,17,18,19,20,21,0,1,2,3,4,5,6,7,8,9,10,11,12,13,14,15,16,17,18,19,21,0,0,1,2,4,5,6,7,8,9,10,11,12,13,14,16,17,18,19,20,21,0,1,2,3,4,5,15,0,1,4,5,6,7,8,9,10,11,12,13,16,18,0,1,2,3,4,5,6,7,8,9,10,11,12,13,14,15,16,17,18,19,21,0,2],"categories_nodes":[0,1,2,4,5,9,11,13,17,18,19,20,21,22,25,26,27,28,30,33,34,35,36,37,38,39,42,43,47,48,49,50,51,52,53,54,59,60,62,64,66,67,68,69,70,71,73,74,75,77,80],"categories_segments":[0,21,42,59,64,84,85,87,88,108,124,142,143,163,173,174,175,195,206,207,208,209,225,226,242,243,245,266,284,285,286,291,292,293,314,327,328,347,348,349,350,359,360,381,402,403,423,430,444,465,466],"categories_sizes":[21,21,17,5,20,1,2,1,20,16,18,1,20,10,1,1,20,11,1,1,1,16,1,16,1,2,21,18,1,1,5,1,1,21,13,1,19,1,1,1,9,1,21,21,1,20,7,14,21,1,1],"default_left":[1,1,1,0,1,1,0,0,0,1,0,1,0,1,0,0,0,1,1,1,1,1,1,0,0,1,1,1,1,0,1,0,0,1,1,1,1,1,1,1,0,0,1,1,0,0,0,1,1,1,1,1,1,1,1,0,0,0,0,1,1,0,1,0,1,0,1,1,1,1,1,1,0,1,1,1,0,1,0,0,1,0,0,0,0,0,0,0,0,0,0,0,0,0,0,0,0,0,0,0,0,0,0,0,0,0,0,0,0,0,0,0,0,0,0,0,0,0,0,0,0],"id":2,"left_children":[1,3,5,-1,7,9,11,13,-1,15,17,19,21,23,-1,-1,-1,25,27,29,31,33,35,-1,-1,37,39,41,43,-1,45,-1,-1,47,49,51,53,55,57,59,-1,61,63,65,-1,-1,-1,67,69,71,73,75,77,79,81,-1,-1,-1,-1,83,85,87,89,-1,91,93,95,97,99,101,103,105,-1,107,109,111,113,115,117,-1,119,-1,-1,-1,-1,-1,-1,-1,-1,-1,-1,-1,-1,-1,-1,-1,-1,-1,-1,-1,-1,-1,-1,-1,-1,-1,-1,-1,-1,-1,-1,-1,-1,-1,-1,-1,-1,-1,-1,-1,-1],"loss_changes":[4.2001807E2,3.0852156E3,1.5557202E2,0E0,1.1776196E1,4.5243042E1,4.9176108E2,8.781428E0,0E0,1.1992152E2,4.091809E1,5.096685E2,7.3874146E1,7.924307E0,0E0,0E0,0E0,2.9197467E2,3.3516357E1,1.6552309E1,2.0775818E2,1.0183331E2,1.0576903E2,0E0,0E0,2.5798886E2,2.7376116E1,1.35354E1,1.7901794E1,0E0,2.2897556E1,0E0,0E0,1.3970828E2,3.2013E1,4.4871597E1,9.341081E1,4.5795837E1,1.4521255E1,2.1197495E1,0E0,7.95282E0,2.7244568E1,1.3922546E1,0E0,0E0,0E0,5.793189E0,1.691655E2,4.3006943E1,2.46268E1,3.9225143E1,1.49087105E1,3.2355152E1,8.855032E1,0E0,0E0,0E0,0E0,5.814128E0,1.7587822E1,6.2374176E1,2.2241974E1,0E0,3.665506E1,2.9093933E1,5.8834625E1,2.0156786E1,7.3189335E0,3.7604965E1,7.286737E1,2.8028625E1,0E0,2.1492281E1,2.243193E1,7.522268E0,4.2678467E1,4.8201782E1,8.27354E0,0E0,5.9874573E0,0E0,0E0,0E0,0E0,0E0,0E0,0E0,0E0,0E0,0E0,0E0,0E0,0E0,0E0,0E0,0E0,0E0,0E0,0E0,0E0,0E0,0E0,0E0,0E0,0E0,0E0,0E0,0E0,0E0,0E0,0E0,0E0,0E0,0E0,0E0,0E0,0E0,0E0,0E0,0E0],"parents":[2147483647,0,0,1,1,2,2,4,4,5,5,6,6,7,7,9,9,10,10,11,11,12,12,13,13,17,17,18,18,19,19,20,20,21,21,22,22,25,25,26,26,27,27,28,28,30,30,33,33,34,34,35,35,36,36,37,37,38,38,39,39,41,41,42,42,43,43,47,47,48,48,49,49,50,50,51,51,52,52,53,53,54,54,59,59,60,60,61,61,62,62,64,64,65,65,66,66,67,67,68,68,69,69,70,70,71,71,73,73,74,74,75,75,76,76,77,77,78,78,80,80],"right_children":[2,4,6,-1,8,10,12,14,-1,16,18,20,22,24,-1,-1,-1,26,28,30,32,34,36,-1,-1,38,40,42,44,-1,46,-1,-1,48,50,52,54,56,58,60,-1,62,64,66,-1,-1,-1,68,70,72,74,76,78,80,82,-1,-1,-1,-1,84,86,88,90,-1,92,94,96,98,100,102,104,106,-1,108,110,112,114,116,118,-1,120,-1,-1,-1,-1,-1,-1,-1,-1,-1,-1,-1,-1,-1,-1,-1,-1,-1,-1,-1,-1,-1,-1,-1,-1,-1,-1,-1,-1,-1,-1,-1,-1,-1,-1,-1,-1,-1,-1,-1,-1],"split_conditions":[NaN,NaN,NaN,1.5687961E1,NaN,NaN,1E0,2E0,-3.563213E-1,NaN,1E0,NaN,2E0,NaN,1.1775373E0,-5.9085286E-1,3.7830274E0,NaN,NaN,NaN,NaN,NaN,NaN,5.2432615E-1,-3.554088E-1,NaN,NaN,NaN,NaN,2.1270473E-1,NaN,-1.1116953E0,-6.6457477E0,NaN,NaN,NaN,NaN,NaN,NaN,NaN,1.2513084E0,2E0,NaN,NaN,-6.8690085E-1,1.9665177E-1,-1.8554083E0,NaN,NaN,NaN,NaN,NaN,NaN,NaN,NaN,7.2600846E0,3.7201538E0,1.4811485E0,-9.651683E-2,NaN,NaN,3E0,NaN,2.050597E0,NaN,2E0,NaN,NaN,NaN,NaN,NaN,NaN,-4.5505348E-1,NaN,NaN,NaN,2E0,NaN,2E0,7.046236E-1,NaN,-3.9787896E0,-5.4900575E-2,9.341737E-2,9.4682705E-1,5.6902327E-2,-1.4375275E0,9.111159E-1,-3.5082482E-4,1.739437E-1,1.1641034E0,2.0560636E-1,8.183379E-1,7.7514E-1,5.3797334E-1,5.7996243E-1,-4.1352102E-1,1.0204977E0,-6.6428494E-1,1.1055154E0,1.248184E-1,2.619283E0,4.677717E-1,6.7581167E0,2.6148036E0,1.1817391E0,6.1038727E-1,3.6162022E-1,-3.615308E-1,8.0392575E-1,-3.7872016E-1,8.058201E-1,1.3953912E-1,9.9652135E-1,1.3888444E-1,-1.4798187E-1,9.868513E-1,2.334506E-1,-6.156309E-2,-8.984642E-2,-5.5453E-1],"split_indices":[4,5,4,0,5,5,8,2,0,3,8,5,8,3,0,0,0,5,5,5,1,5,5,0,0,3,3,4,5,0,4,0,0,3,1,5,4,4,5,5,0,2,5,4,0,0,0,6,1,5,6,6,4,5,1,0,0,0,0,5,4,8,6,0,3,8,5,9,5,5,6,5,0,5,5,5,2,6,2,0,4,0,0,0,0,0,0,0,0,0,0,0,0,0,0,0,0,0,0,0,0,0,0,0,0,0,0,0,0,0,0,0,0,0,0,0,0,0,0,0,0],"split_type":[1,1,1,0,1,1,0,0,0,1,0,1,0,1,0,0,0,1,1,1,1,1,1,0,0,1,1,1,1,0,1,0,0,1,1,1,1,1,1,1,0,0,1,1,0,0,0,1,1,1,1,1,1,1,1,0,0,0,0,1,1,0,1,0,1,0,1,1,1,1,1,1,0,1,1,1,0,1,0,0,1,0,0,0,0,0,0,0,0,0,0,0,0,0,0,0,0,0,0,0,0,0,0,0,0,0,0,0,0,0,0,0,0,0,0,0,0,0,0,0,0],"sum_hessian":[3.243E3,4.7E1,3.196E3,7E0,4E1,2.07E3,1.126E3,2.8E1,1.2E1,1.2E1,2.058E3,4.6E1,1.08E3,2.2E1,6E0,5E0,7E0,6.4E1,1.994E3,3E1,1.6E1,4.02E2,6.78E2,1.5E1,7E0,2.2E1,4.2E1,6.45E2,1.349E3,2E1,1E1,5E0,1.1E1,5.6E1,3.46E2,5.92E2,8.6E1,1.1E1,1.1E1,3.4E1,8E0,4.36E2,2.09E2,1.344E3,5E0,5E0,5E0,2.9E1,2.7E1,2.07E2,1.39E2,2.52E2,3.4E2,7.5E1,1.1E1,5E0,6E0,6E0,5E0,1.9E1,1.5E1,3.38E2,9.8E1,6E0,2.03E2,1.116E3,2.28E2,1.3E1,1.6E1,1.7E1,1E1,1.93E2,1.4E1,8E1,5.9E1,7.8E1,1.74E2,7.5E1,2.65E2,1.7E1,5.8E1,6E0,5E0,1.4E1,5E0,7E0,8E0,2.96E2,4.2E1,1.3E1,8.5E1,7.8E1,1.25E2,4E2,7.16E2,1.94E2,3.4E1,6E0,7E0,1E1,6E0,6E0,1.1E1,5E0,5E0,6.4E1,1.29E2,4.3E1,3.7E1,5E1,9E0,9E0,6.9E1,1.38E2,3.6E1,3.1E1,4.4E1,2.05E2,6E1,2.2E1,3.6E1],"tree_param":{"num_deleted":"0","num_feature":"10","num_nodes":"121","size_leaf_vector":"0"}},{"base_weights":[2.608024E-1,6.2085714E0,2.1922077E-1,2.086023E1,-1.3833684E0,2.511481E-1,-1.9634632E0,4.519155E0,-1.0270703E1,3.1321853E-1,-1.06040284E-1,1.03879526E-1,-1.0285494E1,4.5592756E0,1.9288788E0,2.1969128E-1,7.642082E-1,9.4638306E-1,-2.8808364E-1,2.622472E-1,-4.8129097E-1,4.2483562E-1,-4.5096483E-3,2.791439E0,6.6026515E-1,3.7055082E0,2.7874798E-1,-2.0497181E0,-1.9304417E-1,3.351599E-1,4.7946434E0,1.9331191E-1,-4.1693977E-1,3.6524923E0,2.736737E-1,2.785334E0,6.023524E-1,9.164339E-1,4.95043E0,5.6009513E-1,-4.2027828E-1,-4.1821522E-1,-2.7806182E0,8.220411E-1,-2.8716075E-1,1.948851E0,2.7901328E-1,3.9972353E0,1.9899688E0,4.7147864E-1,1.7558422E-2,-1.4419958E-1,-8.8120437E-1,3.679967E0,1.2831253E0,1.0789049E0,1.0884401E-1,7.1041477E-1,1.4665693E-1,-1.358463E0,2.2759414E-1,-2.6685634E0,-1.190824E0,-3.2093033E-1,1.9401021E0,-1.1008407E0,-1.8022177E-1,6.6665065E-1,2.6312551E0,-4.0284015E-2,3.1855044E-1,2.2591265E-1,1.1797938E0,-1.3478516E0,8.1327304E-2,7.859074E-2,-5.957038E-1,3.0790007E-1,-7.497305E-1,4.413943E0,6.431256E-1,-2.0608878E0,1.9677219E-1,-7.753517E-1,4.8494693E-2,3.795738E0,1.3318439E-1,-3.748685E-1,-1.6420065E0,-1.40552865E-2,-6.2800056E-1],"categories":[0,1,2,3,4,5,6,9,21,0,1,2,3,4,5,6,7,8,9,10,11,12,2,0,1,2,3,4,5,6,7,8,9,10,11,12,13,14,16,17,18,19,0,0,1,3,5,6,7,8,12,18,20,0,1,2,3,4,5,6,7,8,9,10,11,12,13,15,16,17,18,0,1,2,3,4,5,6,7,8,9,10,11,12,13,14,0,1,3,4,5,6,7,8,9,10,11,13,15,16,0,1,2,3,4,5,6,7,8,9,10,11,12,13,15,16,17,18,19,20,0,1,2,3,4,5,7,8,9,10,11,12,13,14,15,16,17,18,19,0,1,2,3,4,6,7,8,10,11,12,14,15,17,18,20,21,6,19,0,1,2,6,8,10,11,13,14,16,17,19,20,21,0,6,9,16],"categories_nodes":[1,2,4,6,7,17,22,23,25,26,28,30,31,32,36,43,65,66],"categories_segments":[0,8,9,22,23,42,43,53,71,86,100,120,139,156,158,172,173,174],"categories_sizes":[8,1,13,1,19,1,10,18,15,14,20,19,17,2,14,1,1,2],"default_left":[0,1,1,0,1,0,1,1,0,0,0,0,0,0,0,0,0,1,0,0,0,0,1,1,0,1,1,0,1,0,1,1,1,0,0,0,1,0,0,0,0,0,0,1,0,0,0,0,0,0,0,0,0,0,0,0,0,0,0,0,0,0,0,0,0,1,1,0,0,0,0,0,0,0,0,0,0,0,0,0,0,0,0,0,0,0,0,0,0,0,0],"id":3,"left_children":[1,3,5,-1,7,9,11,13,-1,15,17,19,-1,-1,-1,21,23,25,27,-1,-1,29,31,33,35,37,39,41,43,45,47,49,51,53,-1,-1,55,-1,-1,57,59,-1,61,63,65,67,69,-1,-1,71,73,75,77,-1,-1,79,81,-1,-1,-1,-1,-1,-1,83,85,87,89,-1,-1,-1,-1,-1,-1,-1,-1,-1,-1,-1,-1,-1,-1,-1,-1,-1,-1,-1,-1,-1,-1,-1,-1],"loss_changes":[8.014952E2,4.0505242E3,2.2474403E2,0E0,1.4058364E3,7.042009E1,1.224526E3,3.498642E1,0E0,1.1403357E2,9.027785E1,8.8075075E0,0E0,0E0,0E0,1.0309551E2,9.69563E1,1.2750873E2,6.702322E1,0E0,0E0,4.578753E2,8.746138E1,4.57921E1,8.385008E1,1.0427902E2,1.1229498E1,2.0929344E1,3.656515E1,1.0369545E2,3.3884277E1,3.5415775E1,4.3938168E1,4.3353622E1,0E0,0E0,1.0236336E2,0E0,0E0,6.351017E0,1.9015152E1,0E0,1.179052E1,4.1843456E1,3.0312235E1,6.7653946E1,6.5756165E1,0E0,0E0,5.03777E1,8.529199E1,3.983784E1,3.2461975E1,0E0,0E0,1.8251685E2,1.1321974E2,0E0,0E0,0E0,0E0,0E0,0E0,5.1035852E0,1.00028625E2,2.7873783E1,3.552465E1,0E0,0E0,0E0,0E0,0E0,0E0,0E0,0E0,0E0,0E0,0E0,0E0,0E0,0E0,0E0,0E0,0E0,0E0,0E0,0E0,0E0,0E0,0E0,0E0],"parents":[2147483647,0,0,1,1,2,2,4,4,5,5,6,6,7,7,9,9,10,10,11,11,15,15,16,16,17,17,18,18,21,21,22,22,23,23,24,24,25,25,26,26,27,27,28,28,29,29,30,30,31,31,32,32,33,33,36,36,39,39,40,40,42,42,43,43,44,44,45,45,46,46,49,49,50,50,51,51,52,52,55,55,56,56,63,63,64,64,65,65,66,66],"right_children":[2,4,6,-1,8,10,12,14,-1,16,18,20,-1,-1,-1,22,24,26,28,-1,-1,30,32,34,36,38,40,42,44,46,48,50,52,54,-1,-1,56,-1,-1,58,60,-1,62,64,66,68,70,-1,-1,72,74,76,78,-1,-1,80,82,-1,-1,-1,-1,-1,-1,84,86,88,90,-1,-1,-1,-1,-1,-1,-1,-1,-1,-1,-1,-1,-1,-1,-1,-1,-1,-1,-1,-1,-1,-1,-1,-1],"split_conditions":[1.3E1,NaN,NaN,2.086023E1,NaN,5.0399942E0,NaN,NaN,-1.0270703E1,3.7692153E0,3.8E1,7.6E1,-1.0285494E1,4.5592756E0,1.9288788E0,3.1330967E0,3.839338E0,NaN,5.159787E0,2.622472E-1,-4.8129097E-1,3.1323752E0,NaN,NaN,1.9E1,NaN,NaN,6.1E1,NaN,2.1E1,NaN,NaN,NaN,8.1E1,2.736737E-1,2.785334E0,NaN,9.164339E-1,4.95043E0,2.4E1,2.4E1,-4.1821522E-1,7.1E1,NaN,4.8E1,2.309261E0,1.7786506E0,3.9972353E0,1.9899688E0,8.7E1,2.8E1,7.7E1,3.1354504E0,3.679967E0,1.2831253E0,2.6E1,2.8E1,7.1041477E-1,1.4665693E-1,-1.358463E0,2.2759414E-1,-2.6685634E0,-1.190824E0,5.3312065E1,6.1E1,NaN,NaN,6.6665065E-1,2.6312551E0,-4.0284015E-2,3.1855044E-1,2.2591265E-1,1.1797938E0,-1.3478516E0,8.1327304E-2,7.859074E-2,-5.957038E-1,3.0790007E-1,-7.497305E-1,4.413943E0,6.431256E-1,-2.0608878E0,1.9677219E-1,-7.753517E-1,4.8494693E-2,3.795738E0,1.3318439E-1,-3.748685E-1,-1.6420065E0,-1.40552865E-2,-6.2800056E-1],"split_indices":[0,4,4,0,5,7,5,5,0,7,0,0,0,0,0,7,7,1,7,0,0,7,5,5,0,5,5,0,5,0,4,4,4,0,0,0,5,0,0,0,0,0,0,3,0,7,7,0,0,0,0,0,7,0,0,0,0,0,0,0,0,0,0,0,0,4,4,0,0,0,0,0,0,0,0,0,0,0,0,0,0,0,0,0,0,0,0,0,0,0,0],"split_type":[0,1,1,0,1,0,1,1,0,0,0,0,0,0,0,0,0,1,0,0,0,0,1,1,0,1,1,0,1,0,1,1,1,0,0,0,1,0,0,0,0,0,0,1,0,0,0,0,0,0,0,0,0,0,0,0,0,0,0,0,0,0,0,0,0,1,1,0,0,0,0,0,0,0,0,0,0,0,0,0,0,0,0,0,0,0,0,0,0,0,0],"sum_hessian":[3.243E3,2.2E1,3.221E3,5E0,1.7E1,3.175E3,4.6E1,1.2E1,5E0,2.705E3,4.7E2,4E1,6E0,5E0,7E0,2.241E3,4.64E2,6.9E1,4.01E2,3E1,1E1,1.17E3,1.071E3,2.2E1,4.42E2,1.3E1,5.6E1,2E1,3.81E2,1.147E3,2.3E1,7.24E2,3.47E2,1.6E1,6E0,7E0,4.35E2,8E0,5E0,4E1,1.6E1,7E0,1.3E1,3.2E1,3.49E2,3.8E1,1.109E3,1.5E1,8E0,2.8E2,4.44E2,2.19E2,1.28E2,8E0,8E0,2.21E2,2.14E2,1.7E1,2.3E1,5E0,1.1E1,6E0,7E0,1.6E1,1.6E1,4E1,3.09E2,2.5E1,1.3E1,3.81E2,7.28E2,2.5E2,3E1,2.1E1,4.23E2,1.61E2,5.8E1,1.6E1,1.12E2,6E0,2.15E2,1.1E1,2.03E2,5E0,1.1E1,5E0,1.1E1,2.8E1,1.2E1,2.53E2,5.6E1],"tree_param":{"num_deleted":"0","num_feature":"10","num_nodes":"91","size_leaf_vector":"0"}},{"base_weights":[8.261724E-2,2.111051E0,5.2461784E-2,1.6851034E1,-7.5590706E-1,-1.611017E1,9.220555E-2,3.2011054E-2,-3.6394827E0,2.4777718E0,7.601385E-2,-7.219351E-1,6.203091E0,8.841606E-2,-6.7293E-1,2.5925364E0,5.6970487E0,1.8049784E-1,-1.3538128E-2,4.6209133E-1,8.2953826E-2,-2.1782336E0,4.8051197E-3,2.859327E0,3.785055E-1,7.9914194E-1,4.2425733E-2,-8.9446723E-1,-2.2456434E0,-4.7075427E-1,8.787944E-2,-7.3317036E-2,4.2490655E-1,1.7239425E0,-2.796821E-1,-1.4363686E0,5.6083184E-2,1.746211E-1,-7.6791537E-1,1.62271E-1,-1.6130571E-1],"categories":[0,1,2,3,4,5,6,7,8,9,10,11,12,13,14,15,16,17,18,19,20,2,0,1,2,3,4,5,6,0,1,2,3,4,5,6,7,8,9,10,11,12,0,1,2,4,5,8,9,10,11,12,13,14,15,17,19,21,0,0,1,2,3,4,5,6,7,8,9,10,11,12,13,16,17,18,19,2,3,5,6,14,17,18,20,0,1,2,6,7,16,19,20],"categories_nodes":[0,4,9,12,17,24,25,29,30],"categories_segments":[0,21,22,29,42,58,59,77,85],"categories_sizes":[21,1,7,13,16,1,18,8,8],"default_left":[1,0,0,0,1,0,0,0,0,1,0,0,1,0,0,0,0,1,0,0,0,0,0,0,1,1,0,0,0,1,1,0,0,0,0,0,0,0,0,0,0],"id":4,"left_children":[1,3,5,-1,7,-1,9,-1,-1,11,13,-1,15,17,-1,-1,-1,19,21,23,25,27,29,-1,31,33,35,-1,-1,37,39,-1,-1,-1,-1,-1,-1,-1,-1,-1,-1],"loss_changes":[1.9834418E2,2.9998752E3,2.931513E3,0E0,1.5150208E2,0E0,1.23181885E2,0E0,0E0,2.8425848E2,4.083207E1,0E0,3.5726166E1,2.9418905E1,0E0,0E0,0E0,4.5206505E1,5.907021E1,1.2746412E2,3.5496044E1,9.541374E0,5.8312927E1,0E0,4.5802177E1,1.3111058E2,9.153849E1,0E0,0E0,9.914146E1,5.7596073E1,0E0,0E0,0E0,0E0,0E0,0E0,0E0,0E0,0E0,0E0],"parents":[2147483647,0,0,1,1,2,2,4,4,6,6,9,9,10,10,12,12,13,13,17,17,18,18,19,19,20,20,21,21,22,22,24,24,25,25,26,26,29,29,30,30],"right_children":[2,4,6,-1,8,-1,10,-1,-1,12,14,-1,16,18,-1,-1,-1,20,22,24,26,28,30,-1,32,34,36,-1,-1,38,40,-1,-1,-1,-1,-1,-1,-1,-1,-1,-1],"split_conditions":[NaN,3.2E1,1.1E1,1.6851034E1,NaN,-1.611017E1,1.5E1,3.2011054E-2,-3.6394827E0,NaN,1.6E2,-7.219351E-1,NaN,6.1E1,-6.7293E-1,2.5925364E0,5.6970487E0,NaN,1E0,2.1E1,1E0,7.127825E1,6.6E1,2.859327E0,NaN,NaN,1.9E1,-8.9446723E-1,-2.2456434E0,NaN,NaN,-7.3317036E-2,4.2490655E-1,1.7239425E0,-2.796821E-1,-1.4363686E0,5.6083184E-2,1.746211E-1,-7.6791537E-1,1.62271E-1,-1.6130571E-1],"split_indices":[4,0,0,0,5,0,0,0,0,4,0,0,5,0,0,0,0,5,8,0,8,0,0,0,6,5,0,0,0,5,5,0,0,0,0,0,0,0,0,0,0],"split_type":[1,0,0,0,1,0,0,0,0,1,0,0,1,0,0,0,0,1,0,0,0,0,0,0,1,1,0,0,0,1,1,0,0,0,0,0,0,0,0,0,0],"sum_hessian":[3.243E3,4.7E1,3.196E3,5E0,4.2E1,5E0,3.191E3,3.6E1,6E0,2.1E1,3.17E3,1.1E1,1E1,3.133E3,3.7E1,5E0,5E0,1.646E3,1.487E3,4.23E2,1.223E3,1.2E1,1.475E3,9E0,4.14E2,6.5E1,1.158E3,7E0,5E0,2.19E2,1.256E3,1.33E2,2.81E2,2.7E1,3.8E1,2E1,1.138E3,1.02E2,1.17E2,8.65E2,3.91E2],"tree_param":{"num_deleted":"0","num_feature":"10","num_nodes":"41","size_leaf_vector":"0"}},{"base_weights":[2.5335748E-2,7.3790207E0,9.626329E-4,2.5851052E-2,-1.7067144E0,2.3111404E-1,-3.1466488E-2,-5.797726E0,-2.3275998E-1,-1.0424999E-2,1.213118E0,-7.735299E-1,6.8553244E-3,1.9362263E-1,-4.8072684E-1,7.0730084E-1,-1.9894777E-1,3.5658817E0,5.9521544E-1,-1.0553141E0,2.2333321E-1,1.8840314E0,-2.7968993E-3,2.9197598E-1,1.9272084E0,-1.3384426E-1,-2.267658E0,3.3076103E0,9.474804E-1,4.3940434E0,2.9331544E-1,-4.234915E-1,-1.9393175E0,2.0174731E-1,-1.3290897E-1,6.3831764E-1,-1.0170366E0,2.6709332E0,-4.714005E-2,6.5304875E-1,-2.4997114E-1,-5.487525E-1,-2.1660268E0,1.3722318E0,-5.3420305E-1,4.2138523E-1,-9.928497E-1,-1.3835124E0,-2.423015E0,-2.2382671E-2,3.2605132E-1,1.5643144E-2,-3.139653E-1,-1.0184724E-1,8.899309E-1,-1.3961452E0,-2.3474208E-1,8.8938534E-1,2.683391E0,-2.2037637E-1,1.3843905E0,1.6754432E-1,-3.342162E-1,-2.2645696E-1,1.2981234E0,3.4904006E-1,-6.438786E-1,-3.7785608E-1,1.3063895E0,-1.2795565E-1,-1.6878654E0,-1.8320423E-1,-1.243589E0,-7.064598E-2,1.8341575E0,8.9613557E-1,1.6166814E-1,2.0179093E-1,-1.08800374E-1,8.1858866E-2,-3.1968528E-1],"categories":[21,0,1,2,12,15,0,1,2,4,5,9,10,11,12,13,14,15,16,17,18,21,0,1,2,3,6,7,8,15,16,17,18,20,14,0,1,2,3,4,5,6,7,12,14,16,0,1,2,3,4,5,6,7,8,9,10,11,12,15,17,6,0,5,6,9,0,0,1,2,3,6,7,8,10,11,12,13,14,15,16,17,18,19,20,21,0,1,2,3,4,5,7,8,9,10,12,14,15,16,18,0],"categories_nodes":[2,8,9,22,26,30,31,32,35,40,47,50,51,52],"categories_segments":[0,1,6,22,34,35,46,61,62,63,66,67,86,101],"categories_sizes":[1,5,16,12,1,11,15,1,1,3,1,19,15,1],"default_left":[0,0,1,0,0,0,0,0,1,1,0,0,0,0,0,0,0,0,0,0,0,0,1,0,0,0,1,0,0,0,1,1,1,0,0,1,0,0,0,0,1,0,0,0,0,0,0,1,0,0,1,1,1,0,0,0,0,0,0,0,0,0,0,0,0,0,0,0,0,0,0,0,0,0,0,0,0,0,0,0,0],"id":5,"left_children":[1,-1,3,5,7,9,11,-1,13,15,17,19,21,-1,-1,23,25,27,29,31,-1,-1,33,35,37,39,41,-1,-1,-1,43,45,47,49,51,53,55,57,-1,59,61,-1,-1,63,65,67,69,71,-1,73,75,77,79,-1,-1,-1,-1,-1,-1,-1,-1,-1,-1,-1,-1,-1,-1,-1,-1,-1,-1,-1,-1,-1,-1,-1,-1,-1,-1,-1,-1],"loss_changes":[8.313385E2,0E0,1.3757777E2,3.754041E1,4.4973074E2,1.6521075E2,7.0939285E1,0E0,8.998003E0,7.5774994E1,1.9883333E2,3.7882545E1,6.1481255E1,0E0,0E0,5.8744305E1,5.957895E1,6.989642E1,1.8691492E2,5.404635E1,0E0,0E0,6.2941425E1,3.9994083E1,4.385016E1,3.942046E1,1.5345497E1,0E0,0E0,0E0,9.366656E1,2.7868843E1,3.1868912E1,2.5621155E1,3.8881058E1,3.4575867E1,1.1992554E1,3.2565018E1,0E0,7.1467514E1,4.185436E1,0E0,0E0,3.7507042E1,2.3927237E1,3.3140366E1,3.9419174E1,1.3215359E1,0E0,6.831267E1,5.3522465E1,3.7077377E1,4.009552E1,0E0,0E0,0E0,0E0,0E0,0E0,0E0,0E0,0E0,0E0,0E0,0E0,0E0,0E0,0E0,0E0,0E0,0E0,0E0,0E0,0E0,0E0,0E0,0E0,0E0,0E0,0E0,0E0],"parents":[2147483647,0,0,2,2,3,3,4,4,5,5,6,6,8,8,9,9,10,10,11,11,12,12,15,15,16,16,17,17,18,18,19,19,22,22,23,23,24,24,25,25,26,26,30,30,31,31,32,32,33,33,34,34,35,35,36,36,37,37,39,39,40,40,43,43,44,44,45,45,46,46,47,47,49,49,50,50,51,51,52,52],"right_children":[2,-1,4,6,8,10,12,-1,14,16,18,20,22,-1,-1,24,26,28,30,32,-1,-1,34,36,38,40,42,-1,-1,-1,44,46,48,50,52,54,56,58,-1,60,62,-1,-1,64,66,68,70,72,-1,74,76,78,80,-1,-1,-1,-1,-1,-1,-1,-1,-1,-1,-1,-1,-1,-1,-1,-1,-1,-1,-1,-1,-1,-1,-1,-1,-1,-1,-1,-1],"split_conditions":[1.2E1,7.3790207E0,NaN,2.5638723E0,3.5361435E1,2.1094089E0,2.8142967E0,-5.797726E0,NaN,NaN,2.1335251E0,9.6E1,2.8437932E0,1.9362263E-1,-4.8072684E-1,1.8236971E0,1.9993832E0,1.09E2,2.4E1,6.3E1,2.2333321E-1,1.8840314E0,NaN,8.1E1,8.6E1,1.3139694E0,NaN,3.3076103E0,9.474804E-1,4.3940434E0,NaN,NaN,NaN,2E0,6.1E1,NaN,9.4E1,5.3E1,-4.714005E-2,1.2378558E0,NaN,-5.487525E-1,-2.1660268E0,5.5E1,2E0,2.6371536E0,2.6940682E0,NaN,-2.423015E0,8.823305E0,NaN,NaN,NaN,-1.0184724E-1,8.899309E-1,-1.3961452E0,-2.3474208E-1,8.8938534E-1,2.683391E0,-2.2037637E-1,1.3843905E0,1.6754432E-1,-3.342162E-1,-2.2645696E-1,1.2981234E0,3.4904006E-1,-6.438786E-1,-3.7785608E-1,1.3063895E0,-1.2795565E-1,-1.6878654E0,-1.8320423E-1,-1.243589E0,-7.064598E-2,1.8341575E0,8.9613557E-1,1.6166814E-1,2.0179093E-1,-1.08800374E-1,8.1858866E-2,-3.1968528E-1],"split_indices":[0,0,4,7,0,7,7,0,5,5,7,0,7,0,0,7,7,0,0,0,0,0,5,0,0,7,5,0,0,0,5,5,4,8,0,3,0,0,0,7,4,0,0,0,8,7,7,6,0,7,5,4,6,0,0,0,0,0,0,0,0,0,0,0,0,0,0,0,0,0,0,0,0,0,0,0,0,0,0,0,0],"split_type":[0,0,1,0,0,0,0,0,1,1,0,0,0,0,0,0,0,0,0,0,0,0,1,0,0,0,1,0,0,0,1,1,1,0,0,1,0,0,0,0,1,0,0,0,0,0,0,1,0,0,1,1,1,0,0,0,0,0,0,0,0,0,0,0,0,0,0,0,0,0,0,0,0,0,0,0,0,0,0,0,0],"sum_hessian":[3.243E3,7E0,3.236E3,3.19E3,4.6E1,6.96E2,2.494E3,8E0,3.8E1,5.59E2,1.37E2,1.22E2,2.372E3,1.8E1,2E1,1.16E2,4.43E2,2.8E1,1.09E2,9.7E1,2.5E1,8E0,2.364E3,8.7E1,2.9E1,4.3E2,1.3E1,1.8E1,1E1,5E0,1.04E2,5.7E1,4E1,9.19E2,1.445E3,6.9E1,1.8E1,2.1E1,8E0,5.5E1,3.75E2,5E0,8E0,4.5E1,5.9E1,2.3E1,3.4E1,3E1,1E1,3.28E2,5.91E2,7.94E2,6.51E2,3.1E1,3.8E1,7E0,1.1E1,1E1,1.1E1,3.2E1,2.3E1,1.19E2,2.56E2,1E1,3.5E1,1.6E1,4.3E1,1.4E1,9E0,2.2E1,1.2E1,8E0,2.2E1,3.19E2,9E0,5.3E1,5.38E2,3.06E2,4.88E2,1.62E2,4.89E2],"tree_param":{"num_deleted":"0","num_feature":"10","num_nodes":"81","size_leaf_vector":"0"}},{"base_weights":[9.409299E-3,2.1014128E-2,-2.7595572E0,7.719091E0,2.266665E-3,1.3454731E-2,-9.766435E-1,5.6916424E-3,2.3175845E0,-1.7743053E0,-1.5258585E-1,-2.754676E-1,2.6895031E-2,-5.295284E-1,-1.6526775E0,-5.300009E-1,5.492032E-1,2.797889E-1,-8.6527765E-1,1.2278256E0,1.975784E-2,-3.2056624E-1,2.3021245E0,7.743594E-1,-1.3608239E0,2.2475944E0,5.360247E-2,-1.0530503E0,2.616312E-2,1.3193889E-1,-1.121315E0,4.5288796E0,-1.8282643E-2,3.1882484E0,-3.5391283E-1,-1.8000034E0,-5.0882983E-1,7.159462E-1,-5.39416E-1,6.7291096E-2,-2.4983644E0,8.928511E-3,3.591306E-1],"categories":[0,0,0,12,14,15,0,1,2,3,4,5,6,7,8,9,10,11,12,13,14,15,16,0,1,3,4,5,7,8,10,11,12,13,14,15,16,17,18,19,20,21],"categories_nodes":[9,10,11,18,19,21],"categories_segments":[0,1,2,3,6,23],"categories_sizes":[1,1,1,3,17,19],"default_left":[0,0,0,0,0,0,0,0,0,1,1,1,0,0,0,0,0,0,1,1,0,1,0,0,0,0,0,0,0,0,0,0,0,0,0,0,0,0,0,0,0,0,0],"id":6,"left_children":[1,3,-1,-1,5,7,9,11,-1,13,15,17,19,-1,-1,-1,-1,21,23,25,27,29,31,33,35,-1,37,39,41,-1,-1,-1,-1,-1,-1,-1,-1,-1,-1,-1,-1,-1,-1],"loss_changes":[1.4878195E2,6.673924E2,0E0,0E0,3.5376408E1,8.1737335E1,2.3856789E1,1.9000114E1,0E0,1.0153843E1,1.0778545E1,7.3316376E1,2.5388832E1,0E0,0E0,0E0,0E0,1.4059981E2,8.8684875E1,4.066291E1,2.0261047E1,5.8527565E1,2.5722525E2,1.24534874E2,6.314618E1,0E0,9.580197E0,5.0770805E1,1.9120928E1,0E0,0E0,0E0,0E0,0E0,0E0,0E0,0E0,0E0,0E0,0E0,0E0,0E0,0E0],"parents":[2147483647,0,0,1,1,4,4,5,5,6,6,7,7,9,9,10,10,11,11,12,12,17,17,18,18,19,19,20,20,21,21,22,22,23,23,24,24,26,26,27,27,28,28],"right_children":[2,4,-1,-1,6,8,10,12,-1,14,16,18,20,-1,-1,-1,-1,22,24,26,28,30,32,34,36,-1,38,40,42,-1,-1,-1,-1,-1,-1,-1,-1,-1,-1,-1,-1,-1,-1],"split_conditions":[1.881725E1,1.1E1,-2.7595572E0,7.719091E0,1.2303068E1,8.856857E0,1.3774934E1,2.9E1,2.3175845E0,NaN,NaN,NaN,8.047759E-1,-5.295284E-1,-1.6526775E0,-5.300009E-1,5.492032E-1,4.335672E0,NaN,NaN,1.1653342E0,NaN,1.9E1,3.0030782E0,2.1E1,2.2475944E0,6.824361E-1,5.3312065E1,6.5422397E0,1.3193889E-1,-1.121315E0,4.5288796E0,-1.8282643E-2,3.1882484E0,-3.5391283E-1,-1.8000034E0,-5.0882983E-1,7.159462E-1,-5.39416E-1,6.7291096E-2,-2.4983644E0,8.928511E-3,3.591306E-1],"split_indices":[7,0,0,0,7,7,7,0,0,3,3,3,7,0,0,0,0,7,5,5,7,4,0,7,0,0,7,0,7,0,0,0,0,0,0,0,0,0,0,0,0,0,0],"split_type":[0,0,0,0,0,0,0,0,0,1,1,1,0,0,0,0,0,0,1,1,0,1,0,0,0,0,0,0,0,0,0,0,0,0,0,0,0,0,0,0,0,0,0],"sum_hessian":[3.243E3,3.234E3,9E0,5E0,3.229E3,3.193E3,3.6E1,3.186E3,7E0,1.8E1,1.8E1,2.23E2,2.963E3,7E0,1.1E1,1.1E1,7E0,1.15E2,1.08E2,1.7E1,2.946E3,8.9E1,2.6E1,2.5E1,8.3E1,6E0,1.1E1,1.7E1,2.929E3,6.4E1,2.5E1,9E0,1.7E1,6E0,1.9E1,2.8E1,5.5E1,5E0,6E0,1.2E1,5E0,2.851E3,7.8E1],"tree_param":{"num_deleted":"0","num_feature":"10","num_nodes":"43","size_leaf_vector":"0"}},{"base_weights":[4.2908145E-3,1.599307E0,-1.9411802E-2,9.564321E0,-6.5451324E-1,-1.4132489E1,1.5350511E-2,-3.3295124E0,8.946029E-2,9.259977E-3,1.6068721E0,6.1249055E-2,-1.8600689E-1,1.2397607E-2,2.1485848E0,-2.875428E0,-1.3889778E-1,5.5079085E-1,-1.0318665E-2,2.72756E0,-1.82277E0,-2.648841E0,-1.0781327E0,1.853341E0,-1.6654985E-1,3.67378E-2,1.400202E0,-1.4987736E0,1.4487243E-3,4.2228284E0,1.861105E0,-1.9724863E0,-1.356158E-1,3.851881E-1,-9.8811924E-1,-4.2597988E-1,1.431653E0,9.39954E-1,-1.8206567E0,6.1027844E-2,-9.1930956E-2,5.6559405E0,1.7465154E0,1.17535286E-1,2.1507E0,4.928666E-2,-2.3766921E-1],"categories":[0,1,2,3,4,5,6,7,8,9,10,11,12,13,14,15,16,17,18,19,20,0,1,3,4,5,6,7,8,9,10,11,12,13,14,15,16,17,18,19,20,21,2,0,1,2,3,4,5,6,7,8,9,10,11,12,0,0,1,2,3,4,6,7,8,9,10,11,13,14,16,17,18,19,20,21,2,16,0,0,1,4,5,6,8,10,16,17,18,19,0,1,3,5,12,15,16,20],"categories_nodes":[0,1,14,15,17,19,25,27,28,32],"categories_segments":[0,21,42,43,56,57,76,78,79,90],"categories_sizes":[21,21,1,13,1,19,2,1,11,8],"default_left":[1,1,0,0,0,0,0,0,0,0,0,0,0,0,1,1,0,1,0,1,0,0,0,0,0,1,0,1,1,0,0,0,1,0,0,0,0,0,0,0,0,0,0,0,0,0,0],"id":7,"left_children":[1,3,5,-1,7,-1,9,-1,-1,11,-1,13,15,17,19,21,23,25,27,29,-1,-1,-1,-1,31,33,35,37,39,41,43,-1,45,-1,-1,-1,-1,-1,-1,-1,-1,-1,-1,-1,-1,-1,-1],"loss_changes":[1.22639465E2,1.2960016E3,2.2413835E3,0E0,1.3026837E2,0E0,4.431139E1,0E0,0E0,3.2323772E1,0E0,2.5638864E2,8.4623436E1,3.0058775E1,1.617685E2,1.1038147E1,5.0960068E1,4.3420197E1,4.1310753E1,6.279294E1,0E0,0E0,0E0,0E0,5.332377E1,4.6873734E1,4.9210075E1,5.9685898E1,2.6649122E1,1.1320978E2,6.84509E1,0E0,2.7130028E1,0E0,0E0,0E0,0E0,0E0,0E0,0E0,0E0,0E0,0E0,0E0,0E0,0E0,0E0],"parents":[2147483647,0,0,1,1,2,2,4,4,6,6,9,9,11,11,12,12,13,13,14,14,15,15,16,16,17,17,18,18,19,19,24,24,25,25,26,26,27,27,28,28,29,29,30,30,32,32],"right_children":[2,4,6,-1,8,-1,10,-1,-1,12,-1,14,16,18,20,22,24,26,28,30,-1,-1,-1,-1,32,34,36,38,40,42,44,-1,46,-1,-1,-1,-1,-1,-1,-1,-1,-1,-1,-1,-1,-1,-1],"split_conditions":[NaN,NaN,1.1E1,9.564321E0,3.5361435E1,-1.4132489E1,1.881725E1,-3.3295124E0,8.946029E-2,4.549519E0,1.6068721E0,4.4348593E0,1.8E1,2.2E1,NaN,NaN,1.9E1,NaN,2.4E1,NaN,-1.82277E0,-2.648841E0,-1.0781327E0,1.853341E0,2.1E1,NaN,2.485128E0,NaN,NaN,5.1E1,7.6E1,-1.9724863E0,NaN,3.851881E-1,-9.8811924E-1,-4.2597988E-1,1.431653E0,9.39954E-1,-1.8206567E0,6.1027844E-2,-9.1930956E-2,5.6559405E0,1.7465154E0,1.17535286E-1,2.1507E0,4.928666E-2,-2.3766921E-1],"split_indices":[4,5,0,0,0,0,7,0,0,7,0,7,0,0,5,5,0,3,0,5,0,0,0,0,0,5,7,3,5,0,0,0,5,0,0,0,0,0,0,0,0,0,0,0,0,0,0],"split_type":[1,1,0,0,0,0,0,0,0,0,0,0,0,0,1,1,0,1,0,1,0,0,0,0,0,1,0,1,1,0,0,0,1,0,0,0,0,0,0,0,0,0,0,0,0,0,0],"sum_hessian":[3.243E3,4.7E1,3.196E3,7E0,4E1,5E0,3.191E3,6E0,3.4E1,3.183E3,8E0,2.514E3,6.69E2,2.457E3,5.7E1,1.1E1,6.58E2,9.9E1,2.358E3,5.1E1,6E0,6E0,5E0,6E0,6.52E2,6.2E1,3.7E1,1.8E1,2.34E3,1.8E1,3.3E1,7E0,6.45E2,4.6E1,1.6E1,9E0,2.8E1,5E0,1.3E1,1.422E3,9.18E2,5E0,1.3E1,1.4E1,1.9E1,3.21E2,3.24E2],"tree_param":{"num_deleted":"0","num_feature":"10","num_nodes":"47","size_leaf_vector":"0"}},{"base_weights":[8.4079395E-4,5.495058E0,-1.4918433E-2,-9.673097E-3,-2.1674721E0,8.512018E-3,-3.118566E-1,-1.9933737E-3,6.082388E-1,3.42841E-2,-8.93219E-1,2.9740755E-2,-1.81912E-1,1.3225394E0,1.110457E-1,1.480019E-1,-4.2473492E-1,-6.252015E-2,-1.3124456E0,1.261698E0,2.1218486E-2,-1.997966E0,-1.3641281E-1,3.995693E-1,1.5893034E0,3.8437128E-1,-4.5580587E-1,-3.35735E-1,2.58252E-1,3.2178193E-1,-6.2741995E-1,-1.828976E0,-7.520974E-1,-3.9034975E-1,2.01174E0,5.9787155E-4,4.9074608E-1,1.2905514E0,-1.7499115E-1,-6.068129E-1,1.3019667E0,-3.9164624E-1,9.89512E-1,1.4512253E-1,-6.0278237E-1,3.6400434E-1,-2.7446193E-1,-8.5894495E-1,9.680212E-2,3.0660856E-1,-6.835114E-1,6.755989E-1,2.0325127E0,-1.3723694E0,3.5377515E-3,2.1776082E-1,9.768872E-1,-3.2384562E-1,9.254056E-2,1.1921033E0,1.470363E-1,1.1288841E-1,6.157921E-1],"categories":[15,17,19,2,4,5,8,10,0,0,1,3,4,5,6,7,8,9,10,11,13,15,17,19,20,0,1,2,3,4,5,6,7,8,9,10,11,12,13,14,15,0,1,2,3,4,5,6,7,8,9,10,11,12,13,14],"categories_nodes":[6,7,14,28,34,42],"categories_segments":[0,3,8,9,25,41],"categories_sizes":[3,5,1,16,16,15],"default_left":[0,0,0,0,0,0,1,1,0,0,0,0,0,0,1,0,0,0,0,0,0,0,0,0,0,0,0,0,1,0,0,0,0,0,1,0,0,0,0,0,0,0,1,0,0,0,0,0,0,0,0,0,0,0,0,0,0,0,0,0,0,0,0],"id":8,"left_children":[1,-1,3,5,-1,7,9,11,13,15,17,19,21,23,25,27,-1,29,31,33,35,-1,37,39,-1,41,-1,43,45,-1,47,-1,49,-1,51,53,55,-1,57,-1,-1,-1,59,-1,-1,61,-1,-1,-1,-1,-1,-1,-1,-1,-1,-1,-1,-1,-1,-1,-1,-1,-1],"loss_changes":[4.0127298E2,0E0,5.2313858E1,1.7764694E1,0E0,1.9213572E1,3.6941597E1,1.7117113E1,1.8571703E1,8.464689E0,2.3814178E1,2.6743496E1,5.445943E1,1.8356277E1,6.687472E0,5.2965574E0,0E0,7.076605E0,3.217167E1,2.4441095E1,2.4509703E1,0E0,3.39627E1,2.2075363E1,0E0,1.3699348E1,0E0,5.3675075E0,5.607752E0,0E0,5.3651023E0,0E0,8.891283E0,0E0,1.0266418E1,2.1201138E1,1.7095247E1,0E0,3.8424034E1,0E0,0E0,0E0,7.8851585E0,0E0,0E0,7.1953077E0,0E0,0E0,0E0,0E0,0E0,0E0,0E0,0E0,0E0,0E0,0E0,0E0,0E0,0E0,0E0,0E0,0E0],"parents":[2147483647,0,0,2,2,3,3,5,5,6,6,7,7,8,8,9,9,10,10,11,11,12,12,13,13,14,14,15,15,17,17,18,18,19,19,20,20,22,22,23,23,25,25,27,27,28,28,30,30,32,32,34,34,35,35,36,36,38,38,42,42,45,45],"right_children":[2,-1,4,6,-1,8,10,12,14,16,18,20,22,24,26,28,-1,30,32,34,36,-1,38,40,-1,42,-1,44,46,-1,48,-1,50,-1,52,54,56,-1,58,-1,-1,-1,60,-1,-1,62,-1,-1,-1,-1,-1,-1,-1,-1,-1,-1,-1,-1,-1,-1,-1,-1,-1],"split_conditions":[1.1E1,5.495058E0,2.3E2,1.15E2,-2.1674721E0,1.09E2,NaN,NaN,3.1354504E0,1.65E2,2.6951544E0,1.4E1,1.6E1,1.8249816E0,NaN,3E0,-4.2473492E-1,1.26E2,1.22E2,3.1354504E0,6.5422397E0,-1.997966E0,2E1,1.13E2,1.5893034E0,2E0,-4.5580587E-1,2E0,NaN,3.2178193E-1,1.43E2,-1.828976E0,3E0,-3.9034975E-1,NaN,1.6E1,7.1E1,1.2905514E0,5.548638E1,-6.068129E-1,1.3019667E0,-3.9164624E-1,NaN,1.4512253E-1,-6.0278237E-1,3.2746568E0,-2.7446193E-1,-8.5894495E-1,9.680212E-2,3.0660856E-1,-6.835114E-1,6.755989E-1,2.0325127E0,-1.3723694E0,3.5377515E-3,2.1776082E-1,9.768872E-1,-3.2384562E-1,9.254056E-2,1.1921033E0,1.470363E-1,1.1288841E-1,6.157921E-1],"split_indices":[0,0,0,0,0,0,5,5,7,0,7,0,0,7,1,8,0,0,0,7,7,0,0,0,0,2,0,2,5,0,0,0,8,0,5,0,0,0,0,0,0,0,5,0,0,7,0,0,0,0,0,0,0,0,0,0,0,0,0,0,0,0,0],"split_type":[0,0,0,0,0,0,1,1,0,0,0,0,0,0,1,0,0,0,0,0,0,0,0,0,0,0,0,0,1,0,0,0,0,0,1,0,0,0,0,0,0,0,1,0,0,0,0,0,0,0,0,0,0,0,0,0,0,0,0,0,0,0,0],"sum_hessian":[3.243E3,6E0,3.237E3,3.232E3,5E0,3.049E3,1.83E2,2.997E3,5.2E1,1.15E2,6.8E1,2.548E3,4.49E2,2.1E1,3.1E1,9.8E1,1.7E1,2.3E1,4.5E1,1.7E1,2.531E3,7E0,4.42E2,1.1E1,1E1,2.3E1,8E0,1.8E1,8E1,1.2E1,1.1E1,1.3E1,3.2E1,5E0,1.2E1,2.425E3,1.06E2,8E0,4.34E2,6E0,5E0,9E0,1.4E1,9E0,9E0,6.9E1,1.1E1,6E0,5E0,5E0,2.7E1,6E0,6E0,5E0,2.42E3,8.9E1,1.7E1,2.24E2,2.1E2,7E0,7E0,5E1,1.9E1],"tree_param":{"num_deleted":"0","num_feature":"10","num_nodes":"63","size_leaf_vector":"0"}},{"base_weights":[9.0479344E-4,-7.4684554E-1,2.7273377E-2,-5.9782662E0,4.309255E-2,8.254653E0,-4.726905E-3,1.817877E-2,-9.359065E0,1.0088772E0,-4.903653E-1,1.4824458E-2,-1.2994809E0,1.2289942E-1,2.09095E0,9.794415E-1,-1.1436079E0,-1.0632302E0,2.3821997E-2,-2.9015555E0,-3.2707244E-1,6.818693E-1,-7.2516704E-1,2.828113E0,-1.8028721E-1,2.514074E0,-4.3889427E-1,-5.806621E-1,-2.0196507E0,3.8994223E-1,-2.8492637E0,1.4923297E-1,-3.581529E-2,-8.7032956E-1,-2.9627638E0,3.0075563E-2,-1.3619814E0,-2.1878765E0,3.141149E-2,6.4934486E-1,-4.0197504E-1,-2.8608165E0,-1.1080124E0,-5.395421E-1,2.0797175E-1,-5.482064E-1,1.2007407E-3,7.820893E-1,-3.689285E-1,3.6736414E-2,-1.2969935E0,2.842761E-1,-6.0082845E-2,2.0071693E-1,-8.0000234E-1,1.6313888E-1,-7.523452E-2,-3.3426514E-1,1.3695527E0,-2.4562621E-1,-1.438232E0,1.8039392E-1,9.713173E-1,1.3833214E-1,-2.1016333E-1,7.0432243E-3,7.3539084E-1,-1.0932306E0,-2.717847E-1,2.4460001E-1,-1.5132992E-2,6.522967E-2,-1.5634267E-1],"categories":[2,5,9,16,21,2,16,5,0,1,2,3,4,5,0,2,0,0,1,3,4,7,8,9,10,12,13,14,15,16,18,20,21,6,6,9,19],"categories_nodes":[4,6,15,16,17,19,30,43,44,50,56],"categories_segments":[0,4,5,7,8,14,15,16,17,33,34],"categories_sizes":[4,1,2,1,6,1,1,1,16,1,3],"default_left":[0,0,0,0,1,0,1,0,0,0,0,0,0,0,0,1,1,1,0,1,0,0,0,0,0,0,0,0,0,0,1,0,0,0,0,0,0,0,0,0,0,0,0,1,1,0,0,0,0,0,1,0,0,0,0,0,1,0,0,0,0,0,0,0,0,0,0,0,0,0,0,0,0],"id":9,"left_children":[1,3,5,7,9,-1,11,-1,-1,13,15,17,19,21,23,25,27,29,31,33,35,-1,-1,-1,-1,-1,-1,37,-1,39,41,43,45,-1,-1,-1,-1,-1,47,-1,-1,-1,-1,49,51,53,55,-1,-1,57,59,61,63,65,67,69,71,-1,-1,-1,-1,-1,-1,-1,-1,-1,-1,-1,-1,-1,-1,-1,-1],"loss_changes":[6.3962654E1,4.5676987E2,1.1797472E3,6.437166E2,4.996468E1,0E0,7.912918E1,0E0,0E0,3.2946392E1,6.0568825E1,2.9883312E1,7.196649E1,1.9739647E1,7.147508E1,8.295092E1,4.181106E1,6.673859E1,2.2847797E1,3.599202E1,1.7710775E1,0E0,0E0,0E0,0E0,0E0,0E0,5.2230408E1,0E0,7.783723E0,1.478949E1,3.9886818E1,3.9270855E1,0E0,0E0,0E0,0E0,0E0,1.6970432E1,0E0,0E0,0E0,0E0,3.3852802E1,1.8570297E1,2.638662E1,2.3913828E1,0E0,0E0,4.4400024E1,2.3651882E1,2.0532784E1,1.2499862E1,5.7466617E0,3.247262E1,2.1325985E1,3.275074E1,0E0,0E0,0E0,0E0,0E0,0E0,0E0,0E0,0E0,0E0,0E0,0E0,0E0,0E0,0E0,0E0],"parents":[2147483647,0,0,1,1,2,2,3,3,4,4,6,6,9,9,10,10,11,11,12,12,13,13,14,14,15,15,16,16,17,17,18,18,19,19,20,20,27,27,29,29,30,30,31,31,32,32,38,38,43,43,44,44,45,45,46,46,49,49,50,50,51,51,52,52,53,53,54,54,55,55,56,56],"right_children":[2,4,6,8,10,-1,12,-1,-1,14,16,18,20,22,24,26,28,30,32,34,36,-1,-1,-1,-1,-1,-1,38,-1,40,42,44,46,-1,-1,-1,-1,-1,48,-1,-1,-1,-1,50,52,54,56,-1,-1,58,60,62,64,66,68,70,72,-1,-1,-1,-1,-1,-1,-1,-1,-1,-1,-1,-1,-1,-1,-1,-1],"split_conditions":[1E0,1.3E1,1.3E1,3.4832513E0,NaN,8.254653E0,NaN,1.817877E-2,-9.359065E0,3.2627327E0,1.9E1,1.9E1,5.1E1,2.5E1,4.549519E0,NaN,NaN,NaN,5.1E1,NaN,8.7E1,6.818693E-1,-7.2516704E-1,2.828113E0,-1.8028721E-1,2.514074E0,-4.3889427E-1,2.2E1,-2.0196507E0,1.7E1,NaN,1.606527E0,5.5E1,-8.7032956E-1,-2.9627638E0,3.0075563E-2,-1.3619814E0,-2.1878765E0,4.3E1,6.4934486E-1,-4.0197504E-1,-2.8608165E0,-1.1080124E0,NaN,NaN,1.606527E0,3.0030782E0,7.820893E-1,-3.689285E-1,2E0,NaN,8.889353E0,4.3E1,2E0,2E0,7.5E1,NaN,-3.3426514E-1,1.3695527E0,-2.4562621E-1,-1.438232E0,1.8039392E-1,9.713173E-1,1.3833214E-1,-2.1016333E-1,7.0432243E-3,7.3539084E-1,-1.0932306E0,-2.717847E-1,2.4460001E-1,-1.5132992E-2,6.522967E-2,-1.5634267E-1],"split_indices":[8,0,0,7,4,0,4,0,0,7,0,0,0,0,7,4,4,4,0,1,0,0,0,0,0,0,0,0,0,0,4,7,0,0,0,0,0,0,0,0,0,0,0,1,4,7,7,0,0,8,4,7,0,8,8,0,4,0,0,0,0,0,0,0,0,0,0,0,0,0,0,0,0],"split_type":[0,0,0,0,1,0,1,0,0,0,0,0,0,0,0,1,1,1,0,1,0,0,0,0,0,0,0,0,0,0,1,0,0,0,0,0,0,0,0,0,0,0,0,1,1,0,0,0,0,0,1,0,0,0,0,0,1,0,0,0,0,0,0,0,0,0,0,0,0,0,0,0,0],"sum_hessian":[3.243E3,1.1E2,3.133E3,1.4E1,9.6E1,8E0,3.125E3,8E0,6E0,3.4E1,6.2E1,3.079E3,4.6E1,1.9E1,1.5E1,1.9E1,4.3E1,2.5E1,3.054E3,1.7E1,2.9E1,1.1E1,8E0,8E0,7E0,7E0,1.2E1,3.3E1,1E1,1.4E1,1.1E1,9.84E2,2.07E3,8E0,9E0,2.4E1,5E0,6E0,2.7E1,9E0,5E0,5E0,6E0,7.7E1,9.07E2,1.39E2,1.931E3,9E0,1.8E1,4.4E1,3.3E1,7.06E2,2.01E2,3.5E1,1.04E2,6.19E2,1.312E3,3.5E1,9E0,1.5E1,1.8E1,6.9E2,1.6E1,9.7E1,1.04E2,2.9E1,6E0,3.6E1,6.8E1,3.08E2,3.11E2,6.14E2,6.98E2],"tree_param":{"num_deleted":"0","num_feature":"10","num_nodes":"73","size_leaf_vector":"0"}},{"base_weights":[-1.1376484E-3,7.554513E-2,-1.2386038E-1,2.6038173E-1,-3.5535265E-2,-1.0147101E-1,-1.1152897E0,2.9922363E-1,-1.0319455E0,6.9207355E-2,-6.353804E-1,-1.13391474E-1,1.277621E0,-1.9229612E0,9.203434E-2,1.6670106E-1,1.3026303E0,-7.495026E-2,1.2179185E0,-8.223516E0,-2.3120798E-1,-2.9294443E-1,-8.078249E-3,2.5786487E-2,1.6815798E0,-2.1127405E0,-1.3155439E0,6.977822E-1,-6.899469E-1,4.8633686E-1,6.23798E-2,5.463234E0,3.8975337E-1,1.3324528E0,-8.64926E-2,8.969648E0,3.8299894E-1,4.6199054E-1,-2.9702488E-1,8.095161E-2,-6.92069E-1,-2.6337216E-2,5.4320925E-1,-2.9713884E-1,-1.3778254E0,3.2120878E-1,3.0439422E0,-5.926659E-1,1.5457788E-1,8.899737E-2,2.9466264E0,-4.8600543E-1,-2.4881663E-2,1.31957035E1,-5.703114E-2,1.458292E0,1.135157E-1,-9.5195043E-1,-1.363089E-1,-3.1874996E-1,3.50494E-1,-3.826237E0,-4.718334E-1,2.3255955E-1,-6.9840506E-2,1.4083395E0,-1.0175566E-1,6.728675E-2,1.0531954E0,-1.2605356E-1,-1.7355976E0,9.708493E-1,8.9860596E-2,6.1028737E-1,-2.0413217E-1,3.4792583E-2,-1.0458281E0,2.4705388E-2,-6.322215E-1,4.6080148E-1,2.2650445E0,-4.0264755E-1,3.5288915E-1,2.063184E-1,-1.871423E0,-3.9406773E-2,-1.312523E0,1.8343495E0,9.231438E-2,-5.3963566E-1,3.2938167E-1,9.42121E-2,1.2691638E0,6.9732815E-1,-9.412833E-2,-1.1159041E0,5.223365E-1,8.1328046E-1,9.834997E-4,1.2682952E0,-3.325164E-1,3.7175637E-1,-4.8763135E-1,-4.292942E-1,-1.718225E0,1.2817296E-2,1.1477942E0,1.9928806E-1,-1.3785946E-1,8.723081E-2,1.4142506E0,1.9534592E-1,-5.6014293E-1,-7.620243E-1,1.5636231E-1,-3.0214575E-1,-1.4025681E0,-1.2144025E-4,7.091987E-1,-9.348997E-2,-1.1384051E0,9.017699E-1,2.1251533E0,5.5164045E-1,1.1375728E-1,-1.5130154E0,1.15661055E-1,-2.8043756E0,-2.2004128E-1,2.5564582E0,-6.62684E-1,7.2294194E-1,-5.6885056E-2,-2.8432718E-1,-1.0395333E0,8.260722E-1,-2.5170353E-1,1.7083776E-1,-4.7415945E-1,1.7041409E0,-3.0470425E-1,1.5696251E0,-7.3289835E-1,3.0236978E-2,-1.6005301E-1],"categories":[0,1,3,4,5,8,9,10,15,18,19,20,0,0,0,1,2,3,4,5,6,7,8,9,10,11,12,13,14,15,0,0,1,2,3,4,15,0,1,3,4,5,6,7,8,9,10,11,12,13,14,15,16,0,1,2,3,5,6,7,8,10,11,12,13,14,15,16,17,18,19,21,0,14,16,0,1,2,3,4,5,6,7,8,9,10,11,12,13,14,15,18,19,20,21,0,1,2,3,4,5,6,7,8,9,10,11,12,13,14,15,16,0,1,2,16,0,0,0,1,3,4,5,6,12,16,0,2,12,2,12,0,0,0,0,1,2,3,4,5,6,7,8,9,10,11,12,13,14,16,17,18,19,20,0,1,2,4,5,6,7,8,9,10,11,12,13,14,16,17,18,19,0,1,2,3,4,5,6,7,8,9,10,15],"categories_nodes":[0,12,13,14,21,26,35,41,42,47,49,55,57,69,70,72,74,76,78,80,82,88,90,93,94],"categories_segments":[0,12,13,14,30,31,37,53,72,73,75,95,112,116,117,118,126,127,129,131,132,133,134,154,172],"categories_sizes":[12,1,1,16,1,6,16,19,1,2,20,17,4,1,1,8,1,2,2,1,1,1,20,18,12],"default_left":[1,0,0,0,0,0,0,0,0,0,0,0,1,1,1,0,0,0,0,0,0,1,0,0,0,0,1,0,0,0,0,0,0,0,0,1,0,0,0,0,0,1,1,0,0,0,0,1,0,1,0,0,0,0,0,1,0,1,0,0,0,0,0,0,0,0,0,0,0,1,1,0,1,0,1,0,1,0,1,0,1,0,1,0,0,0,0,0,1,0,1,0,0,1,1,0,0,0,0,0,0,0,0,0,0,0,0,0,0,0,0,0,0,0,0,0,0,0,0,0,0,0,0,0,0,0,0,0,0,0,0,0,0,0,0,0,0,0,0,0,0,0,0,0,0],"id":10,"left_children":[1,3,5,7,9,11,13,15,-1,17,19,21,23,25,27,29,31,33,35,-1,37,39,41,-1,-1,-1,43,-1,-1,45,47,-1,49,-1,51,53,55,-1,57,59,61,63,65,-1,-1,67,-1,69,71,73,-1,75,77,-1,-1,79,81,83,-1,85,87,-1,89,91,93,-1,95,97,99,101,103,105,107,109,111,113,115,117,119,-1,121,-1,123,-1,-1,125,127,129,131,133,135,137,139,141,143,-1,-1,-1,-1,-1,-1,-1,-1,-1,-1,-1,-1,-1,-1,-1,-1,-1,-1,-1,-1,-1,-1,-1,-1,-1,-1,-1,-1,-1,-1,-1,-1,-1,-1,-1,-1,-1,-1,-1,-1,-1,-1,-1,-1,-1,-1,-1,-1,-1,-1],"loss_changes":[3.0528353E1,4.0996212E1,2.7634773E1,5.0717934E1,7.84016E1,2.0136757E1,2.6904324E1,9.7427895E1,0E0,1.7599083E2,8.3179034E2,2.2888525E1,1.4607761E1,8.991623E0,1.1704627E1,2.160894E1,5.0596576E2,2.1650904E1,7.652228E2,0E0,1.0626702E1,6.680893E1,7.692498E0,0E0,0E0,0E0,6.2713795E0,0E0,0E0,1.010227E2,2.9608648E1,0E0,8.65472E1,0E0,2.3119144E1,1.0292976E3,3.1067879E1,0E0,1.1129395E1,2.4996862E1,2.2633878E2,8.337007E0,2.3310297E1,0E0,0E0,2.8495232E1,0E0,3.2155624E1,2.264552E1,1.0835078E1,0E0,3.6608288E1,2.4537449E1,0E0,0E0,1.3130688E1,1.4362128E1,4.868331E1,0E0,2.5930088E1,5.2974854E1,0E0,1.1361145E1,1.5213545E1,1.1836735E1,0E0,2.2740599E1,8.255823E0,4.6226273E1,1.6494703E1,1.3369106E1,2.005402E1,2.2296085E1,1.7337326E1,1.3216597E1,1.3997949E1,3.515956E1,1.8529531E1,3.0377443E1,0E0,5.9510536E0,0E0,5.2795877E0,0E0,0E0,3.209582E1,5.449116E1,1.0536013E2,1.9386358E1,2.3859764E1,9.883009E0,1.100831E1,2.5357874E1,5.372581E1,1.1356393E1,0E0,0E0,0E0,0E0,0E0,0E0,0E0,0E0,0E0,0E0,0E0,0E0,0E0,0E0,0E0,0E0,0E0,0E0,0E0,0E0,0E0,0E0,0E0,0E0,0E0,0E0,0E0,0E0,0E0,0E0,0E0,0E0,0E0,0E0,0E0,0E0,0E0,0E0,0E0,0E0,0E0,0E0,0E0,0E0,0E0,0E0,0E0,0E0,0E0,0E0],"parents":[2147483647,0,0,1,1,2,2,3,3,4,4,5,5,6,6,7,7,9,9,10,10,11,11,12,12,13,13,14,14,15,15,16,16,17,17,18,18,20,20,21,21,22,22,26,26,29,29,30,30,32,32,34,34,35,35,36,36,38,38,39,39,40,40,41,41,42,42,45,45,47,47,48,48,49,49,51,51,52,52,55,55,56,56,57,57,59,59,60,60,62,62,63,63,64,64,66,66,67,67,68,68,69,69,70,70,71,71,72,72,73,73,74,74,75,75,76,76,77,77,78,78,80,80,82,82,85,85,86,86,87,87,88,88,89,89,90,90,91,91,92,92,93,93,94,94],"right_children":[2,4,6,8,10,12,14,16,-1,18,20,22,24,26,28,30,32,34,36,-1,38,40,42,-1,-1,-1,44,-1,-1,46,48,-1,50,-1,52,54,56,-1,58,60,62,64,66,-1,-1,68,-1,70,72,74,-1,76,78,-1,-1,80,82,84,-1,86,88,-1,90,92,94,-1,96,98,100,102,104,106,108,110,112,114,116,118,120,-1,122,-1,124,-1,-1,126,128,130,132,134,136,138,140,142,144,-1,-1,-1,-1,-1,-1,-1,-1,-1,-1,-1,-1,-1,-1,-1,-1,-1,-1,-1,-1,-1,-1,-1,-1,-1,-1,-1,-1,-1,-1,-1,-1,-1,-1,-1,-1,-1,-1,-1,-1,-1,-1,-1,-1,-1,-1,-1,-1,-1,-1],"split_conditions":[NaN,2E0,8.433323E0,1.2303068E1,5.3071523E0,7.103808E0,1.3774934E1,5.447812E0,-1.0319455E0,4.330286E0,5.3371444E0,2E0,NaN,NaN,NaN,2.5136428E0,5.6513643E0,8.047759E-1,4.4348593E0,-8.223516E0,5.403E0,NaN,4E0,2.5786487E-2,1.6815798E0,-2.1127405E0,NaN,6.977822E-1,-6.899469E-1,2.4347575E0,3.022515E0,5.463234E0,8.856857E0,1.3324528E0,1.7786506E0,NaN,4.549519E0,4.6199054E-1,5.6513643E0,3.1319177E0,1E0,NaN,NaN,-2.9713884E-1,-1.3778254E0,1.8236971E0,3.0439422E0,NaN,3.1323752E0,NaN,2.9466264E0,1.5473659E0,3.839338E0,1.31957035E1,-5.703114E-2,NaN,4.7023816E0,NaN,-1.363089E-1,2.8778281E0,1E0,-3.826237E0,5.0138173E0,5.5538893E0,1.3139694E0,1.4083395E0,2E0,1E0,2.1335251E0,NaN,NaN,3.1286054E0,NaN,8.129403E0,NaN,1.2378558E0,NaN,3.7692153E0,NaN,4.6080148E-1,NaN,-4.0264755E-1,NaN,2.063184E-1,-1.871423E0,1E0,2.8852048E0,4.549519E0,NaN,4.549519E0,NaN,3.952779E0,6.0480514E0,NaN,NaN,-1.1159041E0,5.223365E-1,8.1328046E-1,9.834997E-4,1.2682952E0,-3.325164E-1,3.7175637E-1,-4.8763135E-1,-4.292942E-1,-1.718225E0,1.2817296E-2,1.1477942E0,1.9928806E-1,-1.3785946E-1,8.723081E-2,1.4142506E0,1.9534592E-1,-5.6014293E-1,-7.620243E-1,1.5636231E-1,-3.0214575E-1,-1.4025681E0,-1.2144025E-4,7.091987E-1,-9.348997E-2,-1.1384051E0,9.017699E-1,2.1251533E0,5.5164045E-1,1.1375728E-1,-1.5130154E0,1.15661055E-1,-2.8043756E0,-2.2004128E-1,2.5564582E0,-6.62684E-1,7.2294194E-1,-5.6885056E-2,-2.8432718E-1,-1.0395333E0,8.260722E-1,-2.5170353E-1,1.7083776E-1,-4.7415945E-1,1.7041409E0,-3.0470425E-1,1.5696251E0,-7.3289835E-1,3.0236978E-2,-1.6005301E-1],"split_indices":[5,8,7,7,7,7,7,7,0,7,7,8,1,3,5,7,7,7,7,0,7,3,8,0,0,0,5,0,0,7,7,0,7,0,7,5,7,0,7,7,8,5,6,0,0,7,0,5,7,5,0,7,7,0,0,5,7,5,0,7,8,0,7,7,7,0,2,8,7,6,1,7,5,7,6,7,5,7,5,0,6,0,6,0,0,8,7,7,9,7,5,7,7,5,5,0,0,0,0,0,0,0,0,0,0,0,0,0,0,0,0,0,0,0,0,0,0,0,0,0,0,0,0,0,0,0,0,0,0,0,0,0,0,0,0,0,0,0,0,0,0,0,0,0,0],"split_type":[1,0,0,0,0,0,0,0,0,0,0,0,1,1,1,0,0,0,0,0,0,1,0,0,0,0,1,0,0,0,0,0,0,0,0,1,0,0,0,0,0,1,1,0,0,0,0,1,0,1,0,0,0,0,0,1,0,1,0,0,0,0,0,0,0,0,0,0,0,1,1,0,1,0,1,0,1,0,1,0,1,0,1,0,0,0,0,0,1,0,1,0,0,1,1,0,0,0,0,0,0,0,0,0,0,0,0,0,0,0,0,0,0,0,0,0,0,0,0,0,0,0,0,0,0,0,0,0,0,0,0,0,0,0,0,0,0,0,0,0,0,0,0,0,0],"sum_hessian":[3.243E3,1.996E3,1.247E3,7.49E2,1.247E3,1.22E3,2.7E1,7.33E2,1.6E1,1.062E3,1.85E2,1.21E3,1E1,1.6E1,1.1E1,6.48E2,8.5E1,9.44E2,1.18E2,6E0,1.79E2,4.47E2,7.63E2,5E0,5E0,5E0,1.1E1,6E0,5E0,1.59E2,4.89E2,1E1,7.5E1,5E0,9.39E2,1.1E1,1.07E2,1.2E1,1.67E2,2.31E2,2.16E2,7.39E2,2.4E1,5E0,6E0,1.53E2,6E0,6E1,4.29E2,7E1,5E0,1.25E2,8.14E2,5E0,6E0,2.1E1,8.6E1,2.2E1,1.45E2,9.3E1,1.38E2,9E0,2.07E2,1.06E2,6.33E2,7E0,1.7E1,1.14E2,3.9E1,4.3E1,1.7E1,3.1E1,3.98E2,2.5E1,4.5E1,6.5E1,6E1,7.53E2,6.1E1,1.1E1,1E1,2.2E1,6.4E1,1.3E1,9E0,7.3E1,2E1,2E1,1.18E2,1.91E2,1.6E1,9.4E1,1.2E1,1.9E1,6.14E2,6E0,1.1E1,6E0,1.08E2,2.6E1,1.3E1,2E1,2.3E1,7E0,1E1,1.3E1,1.8E1,2.37E2,1.61E2,1.9E1,6E0,2.5E1,2E1,9E0,5.6E1,3.7E1,2.3E1,7.35E2,1.8E1,4.1E1,2E1,5E0,5E0,1.9E1,4.5E1,6E0,6.7E1,5E0,1.5E1,1.2E1,8E0,1.8E1,1E2,1.68E2,2.3E1,7E0,9E0,7.9E1,1.5E1,7E0,5E0,1E1,9E0,3.04E2,3.1E2],"tree_param":{"num_deleted":"0","num_feature":"10","num_nodes":"145","size_leaf_vector":"0"}},{"base_weights":[1.5394053E-3,1.0859767E0,-1.4575578E-2,-8.2917786E-1,3.6285994E0,1.7340569E-2,-2.2357711E-1,1.1854195E-1,-3.2415836E0,7.4287395E0,2.609377E-1,2.948936E-1,-2.3461074E-2,-8.182921E-3,-1.1701618E0,1.8035015E0,-6.573243E-1,4.9979165E-1,-3.0784535E-1,9.81462E-2,-1.1806568E-1,1.4073356E0,-7.455643E-2,-3.5321076E0,-4.8854998E-1,-1.5848683E0,3.6517045E-1,1.716749E-1,9.452674E-1,3.1447157E-1,-8.745162E-1,8.6744785E-2,1.5911791E0,-1.6905311E-1,1.2093822E-1,2.638541E0,-5.3170186E-1,-1.0339725E0,5.9328698E-2,-8.324045E-1,-5.625763E0,-1.3801247E-2,-1.8970364E0,4.4351807E-1,-8.88218E-1,5.469597E-1,2.618408E0,-3.967491E-1,1.1999931E0,-3.9093286E-1,-8.140706E-1,2.32313E-1,1.3847124E-2,-5.289584E-2,-4.0633935E-1,8.29965E-1,-2.7900502E-1,1.2582645E-1,-1.4348618E0,2.1177854E-1,-2.842278E-1,-3.4307041E-3,-1.214283E0,2.0353702E-1,-4.429669E-1,3.4813562E-1,-2.4048133E0,1.6746129E-1,8.92907E-1,2.4028175E-2,-1.3181065E0,4.214596E-2,1.380389E0,5.3390026E0,3.0345303E-1,-1.2156737E0,-8.647759E-3,2.135312E0,3.1970277E-1,-6.7967343E-1,1.4677022E-1,1.6185762E-1,1.1298631E0,-3.312972E-1,1.5347709E-1,-1.6105329E-1,3.2022786E-1,-1.2360411E0,-2.8607795E-1,1.4165434E0,1.4623964E-1,-1.246087E0,7.898081E-2,-8.6106926E-1,-1.7407578E0,3.253976E-1,-2.7348405E-1,-9.1158867E-1,-1.4124436E-2,1.3842759E-1,-8.986371E-1,2.2665662E-1,-4.018625E-1,2.4081576E0,3.3113825E-1,-1.6336684E0,-1.0003014E-1,3.272128E-1,-3.2493693E-1,1.4885399E0,-4.864605E-1,2.2089817E-1,-6.0383004E-1,-7.103217E-2,2.1235643E-1,1.3131857E0,-1.578428E-1,-8.524762E-2,-4.280928E-1,6.9355315E-1,5.298733E-2,-9.07967E-2,-8.2101834E-1,8.0563205E-1,-2.2505308E-2,-2.2486436E0,4.7956955E-2,-3.409274E-1,3.3866487E-2,5.8062774E-1,2.7946258E0,3.6696073E-1,-5.8082163E-1,-1.2911023E-1,-1.4387357E0,9.532367E-1,-5.667383E-2,-8.625647E-1,-9.489605E-2,1.155503E-1,1.2241266E0,5.5633754E-1,-4.6357682E-1,-1.3269777E0,1.8649657E-1],"categories":[0,1,2,3,4,5,6,7,8,9,10,11,12,13,14,15,16,17,18,19,20,2,0,1,2,3,4,5,6,7,8,9,10,12,14,15,17,18,19,20,21,2,5,4,17,18,19,20,0,1,3,4,5,6,7,8,9,10,12,14,15,20,0,0,0,1,3,4,5,6,7,8,9,10,11,12,13,14,15,20,21,0,16,0,0,0,1,17,18,19,0,0,0,1,2,3,4,5,6,7,8,9,10,11,12,13,14,0,0,0,0,0,0,0,2,9,19,0,0,14,0,1,3,4,5,6,7,8,9,10,11,12,14,14,18,2,5,6,19,4,0,0,0,0,1,2,3,4,5,6,7,8,9,16,0],"categories_nodes":[0,3,5,6,11,12,16,17,19,21,23,30,34,38,39,41,42,44,45,48,54,55,56,58,59,60,64,70,71,72,76,82,83,85,87,91,92,93,97],"categories_segments":[0,21,22,41,43,48,62,63,64,81,82,83,84,85,90,91,92,107,108,109,110,111,112,113,114,117,118,119,120,133,134,135,136,139,140,141,142,143,154],"categories_sizes":[21,1,19,2,5,14,1,1,17,1,1,1,1,5,1,1,15,1,1,1,1,1,1,1,3,1,1,1,13,1,1,1,3,1,1,1,1,11,1],"default_left":[1,0,0,1,0,1,1,0,0,0,0,1,1,0,0,0,1,1,0,1,0,1,0,1,0,0,0,0,0,0,1,0,0,0,1,0,0,0,1,1,0,1,1,0,1,1,0,0,1,0,0,0,0,0,1,1,1,0,1,1,1,0,0,0,1,0,0,0,0,0,1,1,1,0,0,0,1,0,0,0,0,0,1,1,0,1,0,1,0,0,0,1,1,1,0,0,0,1,0,0,0,0,0,0,0,0,0,0,0,0,0,0,0,0,0,0,0,0,0,0,0,0,0,0,0,0,0,0,0,0,0,0,0,0,0,0,0,0,0,0,0,0,0,0,0],"id":11,"left_children":[1,3,5,7,9,11,13,15,-1,-1,-1,17,19,21,23,-1,25,27,29,31,33,35,37,39,41,-1,-1,43,45,47,49,51,-1,53,55,-1,-1,57,59,61,-1,63,65,67,69,71,73,75,77,79,-1,81,83,85,87,89,91,-1,93,95,97,-1,-1,-1,99,-1,-1,101,103,-1,105,107,109,-1,-1,-1,111,-1,-1,-1,-1,113,115,117,119,121,123,125,127,129,131,133,135,137,-1,139,141,143,-1,-1,-1,-1,-1,-1,-1,-1,-1,-1,-1,-1,-1,-1,-1,-1,-1,-1,-1,-1,-1,-1,-1,-1,-1,-1,-1,-1,-1,-1,-1,-1,-1,-1,-1,-1,-1,-1,-1,-1,-1,-1,-1,-1,-1,-1,-1],"loss_changes":[5.669031E1,2.3280635E2,2.1324268E1,9.9354355E1,4.6415826E2,3.141229E1,8.634213E1,4.375412E1,0E0,0E0,0E0,4.3981194E1,2.7829687E1,3.2513203E1,1.25516716E2,0E0,3.3742203E1,3.872648E1,3.2052227E1,2.6149775E1,1.6589542E1,8.076457E1,4.248391E1,2.0947859E2,4.1110558E1,0E0,0E0,4.4424103E1,7.425669E1,2.7634403E1,6.398247E0,1.1177694E1,0E0,3.0900616E1,6.803091E1,0E0,0E0,1.983501E1,1.5245071E1,8.582161E0,0E0,6.142429E0,5.7948997E1,1.5122202E1,1.2515238E1,3.8467384E1,2.3363448E2,1.2733172E1,2.6123608E1,6.546604E0,0E0,2.2136456E1,3.3880646E1,3.043411E1,3.659253E1,3.4587982E1,5.319117E1,0E0,1.7338913E1,1.1154216E1,1.4816896E1,0E0,0E0,0E0,1.0631939E1,0E0,0E0,8.96155E0,4.891792E1,0E0,2.5497017E1,1.2490976E1,5.4158646E1,0E0,0E0,0E0,5.535074E0,0E0,0E0,0E0,0E0,1.2182021E1,2.599841E1,1.1853455E1,3.255855E1,1.8461063E1,4.9633167E1,1.1999604E2,2.1688042E1,6.866043E1,1.5158445E1,3.5464546E1,2.3137108E1,5.436762E0,0E0,3.716643E1,1.6252325E1,3.0973305E1,0E0,0E0,0E0,0E0,0E0,0E0,0E0,0E0,0E0,0E0,0E0,0E0,0E0,0E0,0E0,0E0,0E0,0E0,0E0,0E0,0E0,0E0,0E0,0E0,0E0,0E0,0E0,0E0,0E0,0E0,0E0,0E0,0E0,0E0,0E0,0E0,0E0,0E0,0E0,0E0,0E0,0E0,0E0,0E0,0E0,0E0,0E0],"parents":[2147483647,0,0,1,1,2,2,3,3,4,4,5,5,6,6,7,7,11,11,12,12,13,13,14,14,16,16,17,17,18,18,19,19,20,20,21,21,22,22,23,23,24,24,27,27,28,28,29,29,30,30,31,31,33,33,34,34,37,37,38,38,39,39,41,41,42,42,43,43,44,44,45,45,46,46,47,47,48,48,49,49,51,51,52,52,53,53,54,54,55,55,56,56,58,58,59,59,60,60,64,64,67,67,68,68,70,70,71,71,72,72,76,76,81,81,82,82,83,83,84,84,85,85,86,86,87,87,88,88,89,89,90,90,91,91,92,92,93,93,95,95,96,96,97,97],"right_children":[2,4,6,8,10,12,14,16,-1,-1,-1,18,20,22,24,-1,26,28,30,32,34,36,38,40,42,-1,-1,44,46,48,50,52,-1,54,56,-1,-1,58,60,62,-1,64,66,68,70,72,74,76,78,80,-1,82,84,86,88,90,92,-1,94,96,98,-1,-1,-1,100,-1,-1,102,104,-1,106,108,110,-1,-1,-1,112,-1,-1,-1,-1,114,116,118,120,122,124,126,128,130,132,134,136,138,-1,140,142,144,-1,-1,-1,-1,-1,-1,-1,-1,-1,-1,-1,-1,-1,-1,-1,-1,-1,-1,-1,-1,-1,-1,-1,-1,-1,-1,-1,-1,-1,-1,-1,-1,-1,-1,-1,-1,-1,-1,-1,-1,-1,-1,-1,-1,-1,-1,-1],"split_conditions":[NaN,4.885719E0,5.3071523E0,NaN,5.6513643E0,NaN,NaN,1.7780601E0,-3.2415836E0,7.4287395E0,2.609377E-1,NaN,NaN,5.3371444E0,5.534574E0,1.8035015E0,NaN,NaN,3.2770188E0,NaN,3.7573326E0,NaN,5.6513643E0,NaN,8.823305E0,-1.5848683E0,3.6517045E-1,3.952779E0,4.1293044E0,3.1354504E0,NaN,2.8778281E0,1.5911791E0,3.2386668E0,NaN,2.638541E0,-5.3170186E-1,5.403E0,NaN,NaN,-5.625763E0,NaN,NaN,3.2746568E0,NaN,NaN,4.4348593E0,2.5136428E0,NaN,3.7648818E0,-8.140706E-1,2.721516E0,3.2023113E0,3.1319177E0,NaN,NaN,NaN,1.2582645E-1,NaN,NaN,NaN,-3.4307041E-3,-1.214283E0,2.0353702E-1,NaN,3.4813562E-1,-2.4048133E0,2E0,3.4392939E0,2.4028175E-2,NaN,NaN,NaN,5.3390026E0,3.0345303E-1,-1.2156737E0,NaN,2.135312E0,3.1970277E-1,-6.7967343E-1,1.4677022E-1,1.699889E0,NaN,NaN,3.2386668E0,NaN,3.1330967E0,NaN,3.3009317E0,4.842539E0,4.860874E0,NaN,NaN,NaN,-1.7407578E0,8.823305E0,6.28276E0,NaN,-1.4124436E-2,1.3842759E-1,-8.986371E-1,2.2665662E-1,-4.018625E-1,2.4081576E0,3.3113825E-1,-1.6336684E0,-1.0003014E-1,3.272128E-1,-3.2493693E-1,1.4885399E0,-4.864605E-1,2.2089817E-1,-6.0383004E-1,-7.103217E-2,2.1235643E-1,1.3131857E0,-1.578428E-1,-8.524762E-2,-4.280928E-1,6.9355315E-1,5.298733E-2,-9.07967E-2,-8.2101834E-1,8.0563205E-1,-2.2505308E-2,-2.2486436E0,4.7956955E-2,-3.409274E-1,3.3866487E-2,5.8062774E-1,2.7946258E0,3.6696073E-1,-5.8082163E-1,-1.2911023E-1,-1.4387357E0,9.532367E-1,-5.667383E-2,-8.625647E-1,-9.489605E-2,1.155503E-1,1.2241266E0,5.5633754E-1,-4.6357682E-1,-1.3269777E0,1.8649657E-1],"split_indices":[4,7,7,5,7,4,5,7,0,0,0,5,5,7,7,0,6,1,7,5,7,6,7,4,7,0,0,7,7,7,3,7,0,7,3,0,0,7,5,6,0,1,4,7,6,6,7,7,3,7,0,7,7,7,9,6,6,0,1,4,6,0,0,0,3,0,0,2,7,0,5,5,5,0,0,0,5,0,0,0,0,7,5,4,7,5,7,6,7,7,7,1,9,5,0,7,7,1,0,0,0,0,0,0,0,0,0,0,0,0,0,0,0,0,0,0,0,0,0,0,0,0,0,0,0,0,0,0,0,0,0,0,0,0,0,0,0,0,0,0,0,0,0,0,0],"split_type":[1,0,0,1,0,1,1,0,0,0,0,1,1,0,0,0,1,1,0,1,0,1,0,1,0,0,0,0,0,0,1,0,0,0,1,0,0,0,1,1,0,1,1,0,1,1,0,0,1,0,0,0,0,0,1,1,1,0,1,1,1,0,0,0,1,0,0,0,0,0,1,1,1,0,0,0,1,0,0,0,0,0,1,1,0,1,0,1,0,0,0,1,1,1,0,0,0,1,0,0,0,0,0,0,0,0,0,0,0,0,0,0,0,0,0,0,0,0,0,0,0,0,0,0,0,0,0,0,0,0,0,0,0,0,0,0,0,0,0,0,0,0,0,0,0],"sum_hessian":[3.243E3,4.7E1,3.196E3,2.7E1,2E1,2.773E3,4.23E2,2.2E1,5E0,6E0,1.4E1,3.55E2,2.418E3,3.45E2,7.8E1,5E0,1.7E1,2.65E2,9E1,1.058E3,1.36E3,1.5E1,3.3E2,1.7E1,6.1E1,7E0,1E1,1.53E2,1.12E2,4.3E1,4.7E1,1.053E3,5E0,1.121E3,2.39E2,7E0,8E0,4E1,2.9E2,1.1E1,6E0,4.6E1,1.5E1,1.22E2,3.1E1,9.1E1,2.1E1,2.4E1,1.9E1,1.8E1,2.9E1,3.51E2,7.02E2,7.53E2,3.68E2,8.6E1,1.53E2,1E1,3E1,2.01E2,8.9E1,6E0,5E0,2.7E1,1.9E1,6E0,9E0,7.6E1,4.6E1,1E1,2.1E1,5.7E1,3.4E1,6E0,1.5E1,5E0,1.9E1,5E0,1.4E1,9E0,9E0,3.26E2,2.5E1,2.02E2,5E2,5.84E2,1.69E2,4.6E1,3.22E2,4.6E1,4E1,4.1E1,1.12E2,2E1,1E1,1.63E2,3.8E1,2.6E1,6.3E1,1.1E1,8E0,6.3E1,1.3E1,6E0,4E1,1.1E1,1E1,3.1E1,2.6E1,2.5E1,9E0,1.4E1,5E0,1.14E2,2.12E2,1.6E1,9E0,1.16E2,8.6E1,4.2E1,4.58E2,5.67E2,1.7E1,5E1,1.19E2,1.8E1,2.8E1,2.01E2,1.21E2,3.8E1,8E0,2.9E1,1.1E1,1.8E1,2.3E1,1.2E1,1E2,1.3E1,7E0,1.47E2,1.6E1,1E1,2.8E1,1.4E1,1.2E1],"tree_param":{"num_deleted":"0","num_feature":"10","num_nodes":"145","size_leaf_vector":"0"}},{"base_weights":[1.2900673E-3,6.300445E-3,-2.0643203E0,8.5512584E-1,-5.794343E-3,6.8035803E0,-3.592216E-1,-8.759237E0,1.5781198E-2,5.386235E-1,-9.565618E-1,8.054316E-2,-4.041367E-2,1.8849978E0,-3.6055538E-1,-2.2294726E0,-1.4775768E-1,1.2739366E-1,-2.4915224E-1,3.830351E-1,-8.1020266E-2,2.5986144E-1,-6.535825E-1,1.1122181E-1,1.3070714E0,-8.2227266E-1,-1.5254487E-1,7.19199E-1,-2.2689639E-1,1.4818108E-3,-2.6065934E-1,1.0229755E-1,1.5195087E0,2.209491E0,-7.613041E-2,7.649723E-1,-2.162233E0,-3.87249E-1,1.4316556E-1,1.3313448E0,4.0517828E-1,-4.7353026E-1,9.221519E-1,-1.4124247E-1,1.3440615E-1,-5.0805324E-1,2.3116098E-1,-4.5514192E-2,1.530406E-1,-1.1042588E0,1.0025208E0,1.7923951E0,-1.2271737E0,-4.5557613E0,3.273708E-1,-1.0860284E-1,-7.74855E-1,-1.5425469E-1,4.001239E-1,1.9598129E0,-5.0860024E-3,1.6082934E-1,1.5862644E0,3.6025944E-1,-4.383974E-1,-6.9115944E-2,-1.0564395E0,2.0478986E-1,-8.404741E-2,-2.363801E-1,-1.0367775E0,1.2041019E0,-3.3270651E-3],"categories":[0,1,2,3,4,5,6,7,8,9,10,11,12,13,14,15,16,17,18,19,20,5,11,13,5,9,16,0,0,1,3,0,1,2,3,4,5,6,7,8,9,10,11,12,13,14,0,0,0,0,1,2,3,4,5,6,6,16,0,1,2,3,4,6,7,8,10,11,12,13,14,15,16,17,18,19,20,21],"categories_nodes":[1,11,19,20,23,24,25,26,27,34,44,45,46],"categories_segments":[0,21,24,27,28,31,46,47,48,49,56,57,58],"categories_sizes":[21,3,3,1,3,15,1,1,1,7,1,1,20],"default_left":[0,1,0,0,0,0,0,0,0,0,0,1,0,0,0,0,0,0,0,1,1,0,0,1,1,1,1,1,0,0,0,0,0,0,1,0,0,0,0,0,0,0,0,0,1,1,1,0,0,0,0,0,0,0,0,0,0,0,0,0,0,0,0,0,0,0,0,0,0,0,0,0,0],"id":12,"left_children":[1,3,-1,5,7,-1,9,-1,11,13,15,17,19,-1,-1,-1,21,23,25,27,29,-1,-1,31,33,35,37,39,41,43,45,47,-1,-1,49,51,53,55,57,59,61,63,-1,65,67,69,71,-1,-1,-1,-1,-1,-1,-1,-1,-1,-1,-1,-1,-1,-1,-1,-1,-1,-1,-1,-1,-1,-1,-1,-1,-1,-1],"loss_changes":[4.79554E1,3.3250095E1,0E0,4.915218E2,8.618773E2,0E0,2.1978533E1,0E0,1.1605503E1,3.8147175E1,4.392199E1,2.2899704E1,2.9375664E1,0E0,0E0,0E0,7.7192593E0,2.4680466E1,1.01526165E1,3.0734613E1,2.3098093E1,0E0,0E0,2.342398E1,4.488544E1,5.7188427E1,1.1028327E1,1.828014E1,2.068823E1,2.0280573E1,5.97395E1,2.4833946E1,0E0,0E0,2.4907299E1,5.876248E1,1.6725053E2,1.469724E1,1.1043392E1,6.389215E1,2.0795403E1,7.180208E0,0E0,2.9899523E1,2.2293308E1,5.3876205E1,5.778837E1,0E0,0E0,0E0,0E0,0E0,0E0,0E0,0E0,0E0,0E0,0E0,0E0,0E0,0E0,0E0,0E0,0E0,0E0,0E0,0E0,0E0,0E0,0E0,0E0,0E0,0E0],"parents":[2147483647,0,0,1,1,3,3,4,4,6,6,8,8,9,9,10,10,11,11,12,12,16,16,17,17,18,18,19,19,20,20,23,23,24,24,25,25,26,26,27,27,28,28,29,29,30,30,31,31,34,34,35,35,36,36,37,37,38,38,39,39,40,40,41,41,43,43,44,44,45,45,46,46],"right_children":[2,4,-1,6,8,-1,10,-1,12,14,16,18,20,-1,-1,-1,22,24,26,28,30,-1,-1,32,34,36,38,40,42,44,46,48,-1,-1,50,52,54,56,58,60,62,64,-1,66,68,70,72,-1,-1,-1,-1,-1,-1,-1,-1,-1,-1,-1,-1,-1,-1,-1,-1,-1,-1,-1,-1,-1,-1,-1,-1,-1,-1],"split_conditions":[2.3E2,NaN,-2.0643203E0,3.2E1,1.1E1,6.8035803E0,4.1293044E0,-8.759237E0,5.8E1,4.8E1,2E0,NaN,2E0,1.8849978E0,-3.6055538E-1,-2.2294726E0,7.6E1,3E0,2.8E1,NaN,NaN,2.5986144E-1,-6.535825E-1,NaN,NaN,NaN,NaN,NaN,7.127825E1,3.2023113E0,8.3E1,4.5E1,1.5195087E0,2.209491E0,NaN,1E0,1.9E1,5E1,2E0,3.1323752E0,4.860874E0,2.8778281E0,9.221519E-1,3.1354504E0,NaN,NaN,NaN,-4.5514192E-2,1.530406E-1,-1.1042588E0,1.0025208E0,1.7923951E0,-1.2271737E0,-4.5557613E0,3.273708E-1,-1.0860284E-1,-7.74855E-1,-1.5425469E-1,4.001239E-1,1.9598129E0,-5.0860024E-3,1.6082934E-1,1.5862644E0,3.6025944E-1,-4.383974E-1,-6.9115944E-2,-1.0564395E0,2.0478986E-1,-8.404741E-2,-2.363801E-1,-1.0367775E0,1.2041019E0,-3.3270651E-3],"split_indices":[0,4,0,0,0,0,7,0,0,0,8,4,8,0,0,0,0,8,0,4,1,0,0,4,4,3,3,3,0,7,0,0,0,0,4,8,0,0,8,7,7,7,0,7,4,4,4,0,0,0,0,0,0,0,0,0,0,0,0,0,0,0,0,0,0,0,0,0,0,0,0,0,0],"split_type":[0,1,0,0,0,0,0,0,0,0,0,1,0,0,0,0,0,0,0,1,1,0,0,1,1,1,1,1,0,0,0,0,0,0,1,0,0,0,0,0,0,0,0,0,1,1,1,0,0,0,0,0,0,0,0,0,0,0,0,0,0,0,0,0,0,0,0,0,0,0,0,0,0],"sum_hessian":[3.243E3,3.238E3,5E0,4.5E1,3.193E3,5E0,4E1,5E0,3.188E3,1.6E1,2.4E1,1.481E3,1.707E3,5E0,1.1E1,6E0,1.8E1,1.297E3,1.84E2,1.49E2,1.558E3,1.1E1,7E0,1.28E3,1.7E1,2.6E1,1.58E2,9.6E1,5.3E1,1.068E3,4.9E2,1.275E3,5E0,7E0,1E1,1.2E1,1.4E1,8.8E1,7E1,3.2E1,6.4E1,4.6E1,7E0,5.15E2,5.53E2,3.26E2,1.64E2,5.23E2,7.52E2,5E0,5E0,7E0,5E0,5E0,9E0,6.7E1,2.1E1,3.8E1,3.2E1,1.5E1,1.7E1,5.9E1,5E0,6E0,4E1,5E2,1.5E1,3.41E2,2.12E2,2.78E2,4.8E1,2.2E1,1.42E2],"tree_param":{"num_deleted":"0","num_feature":"10","num_nodes":"73","size_leaf_vector":"0"}},{"base_weights":[4.5339333E-5,3.546569E0,-1.0126755E-2,8.596908E-3,-1.2951053E0,5.6819224E-1,-4.961169E-3,-2.3033245E0,-2.5933078E-1,-1.6332276E0,1.1274966E0,-9.033383E-3,1.1785965E0,-3.484045E0,3.1347084E-1,2.624102E-2,-8.3742046E-1,1.06142126E-1,-1.7432667E0,3.6030052E0,4.120626E-1,-3.4388256E-1,-1.9401996E-3,-8.6172366E-1,-3.8724787E0,-4.991341E-1,4.3642488E-1,1.2448127E0,3.2002268E0,1.7864102E0,1.068797E-2,7.380613E-1,-1.3561002E0,5.346469E-1,-7.1874564E-3,5.9414774E-1,-1.1782371E0,-6.0199213E-1,1.7435277E0,-2.4246254E0,-3.0988774E-1,1.1101373E0,-1.4542539E0,-5.3795284E-1,-1.765746E-3,1.8466065E0,-3.3002254E-1,5.754466E-1,-2.9137518E0,3.4652212E0,3.2692662E-1,-7.9542863E-1,-3.0234497E0,4.1999847E-1,-7.7538013E-1,-2.027654E-1,2.3349178E0,-1.7298603E0,-7.7296525E-2,1.5190364E-3,-4.2046773E-1],"categories":[21,0,0,0,1,2,3,4,6,7,8,9,10,11,12,13,14,15,17,18,19,20,21,0,0,1,2,3,4,5,7,8,9,10,11,12,13,14,15,17,9],"categories_nodes":[2,4,5,10,20,21,36],"categories_segments":[0,1,2,3,23,24,40],"categories_sizes":[1,1,1,20,1,16,1],"default_left":[0,0,1,0,1,1,0,0,0,0,1,0,0,0,0,0,0,0,0,0,1,1,0,0,0,0,0,0,0,0,0,0,0,0,0,0,1,0,0,0,0,0,0,0,0,0,0,0,0,0,0,0,0,0,0,0,0,0,0,0,0],"id":13,"left_children":[1,-1,3,5,7,9,11,13,15,17,19,21,-1,23,-1,25,-1,-1,-1,27,29,31,33,-1,-1,-1,-1,-1,-1,-1,35,37,39,41,43,45,47,-1,49,51,53,55,-1,57,59,-1,-1,-1,-1,-1,-1,-1,-1,-1,-1,-1,-1,-1,-1,-1,-1],"loss_changes":[1.6718504E2,0E0,7.789822E1,2.4215437E1,4.8260727E1,9.3881134E1,2.1438614E1,7.711578E1,6.3037376E0,2.3902237E1,1.0640698E2,7.3851852E0,0E0,7.2731186E1,0E0,8.390417E0,0E0,0E0,0E0,1.9798615E1,4.078518E1,7.113843E1,8.576863E0,0E0,0E0,0E0,0E0,0E0,0E0,0E0,2.8444466E1,5.1363457E1,3.7074127E1,4.5499588E1,8.679975E0,6.0515656E1,8.229834E1,0E0,7.866594E1,3.7819107E1,1.3035643E1,7.680557E1,0E0,2.507279E1,7.040307E0,0E0,0E0,0E0,0E0,0E0,0E0,0E0,0E0,0E0,0E0,0E0,0E0,0E0,0E0,0E0,0E0],"parents":[2147483647,0,0,2,2,3,3,4,4,5,5,6,6,7,7,8,8,9,9,10,10,11,11,13,13,15,15,19,19,20,20,21,21,22,22,30,30,31,31,32,32,33,33,34,34,35,35,36,36,38,38,39,39,40,40,41,41,43,43,44,44],"right_children":[2,-1,4,6,8,10,12,14,16,18,20,22,-1,24,-1,26,-1,-1,-1,28,30,32,34,-1,-1,-1,-1,-1,-1,-1,36,38,40,42,44,46,48,-1,50,52,54,56,-1,58,60,-1,-1,-1,-1,-1,-1,-1,-1,-1,-1,-1,-1,-1,-1,-1,-1],"split_conditions":[1.1E1,3.546569E0,NaN,2E1,NaN,NaN,2.03E2,5.6513643E0,7.5E1,3.2386668E0,NaN,1E0,1.1785965E0,3.2386668E0,3.1347084E-1,3.2746568E0,-8.3742046E-1,1.06142126E-1,-1.7432667E0,3.7648818E0,NaN,NaN,2.1E1,-8.6172366E-1,-3.8724787E0,-4.991341E-1,4.3642488E-1,1.2448127E0,3.2002268E0,1.7864102E0,1E0,3.7648818E0,2.9E1,3.2746568E0,2.3E1,1.3E1,NaN,-6.0199213E-1,3.4E1,3.4832513E0,3.2770188E0,2.309261E0,-1.4542539E0,2.485128E0,1.65E2,1.8466065E0,-3.3002254E-1,5.754466E-1,-2.9137518E0,3.4652212E0,3.2692662E-1,-7.9542863E-1,-3.0234497E0,4.1999847E-1,-7.7538013E-1,-2.027654E-1,2.3349178E0,-1.7298603E0,-7.7296525E-2,1.5190364E-3,-4.2046773E-1],"split_indices":[0,0,4,0,6,1,0,7,0,7,4,8,0,7,0,7,0,0,0,7,9,4,0,0,0,0,0,0,0,0,8,7,0,7,0,0,4,0,0,7,7,7,0,7,0,0,0,0,0,0,0,0,0,0,0,0,0,0,0,0,0],"split_type":[0,0,1,0,1,1,0,0,0,0,1,0,0,0,0,0,0,0,0,0,1,1,0,0,0,0,0,0,0,0,0,0,0,0,0,0,1,0,0,0,0,0,0,0,0,0,0,0,0,0,0,0,0,0,0,0,0,0,0,0,0],"sum_hessian":[3.243E3,6E0,3.237E3,3.191E3,4.6E1,7.5E1,3.116E3,2.3E1,2.3E1,1.5E1,6E1,3.109E3,7E0,1.6E1,7E0,1.8E1,5E0,5E0,1E1,1.3E1,4.7E1,6.4E1,3.045E3,8E0,8E0,8E0,1E1,5E0,8E0,7E0,4E1,3.1E1,3.3E1,2.9E1,3.016E3,2.7E1,1.3E1,1.2E1,1.9E1,1.6E1,1.7E1,2.4E1,5E0,3E1,2.986E3,9E0,1.8E1,8E0,5E0,5E0,1.4E1,1E1,6E0,8E0,9E0,1.5E1,9E0,5E0,2.5E1,2.967E3,1.9E1],"tree_param":{"num_deleted":"0","num_feature":"10","num_nodes":"61","size_leaf_vector":"0"}},{"base_weights":[1.1283096E-4,7.087661E-1,-1.2222221E-2,3.539383E0,-1.12776265E-1,-5.442085E0,1.1901015E-3,-4.7323358E-1,6.276155E0,6.205174E-1,-1.1204844E0,-7.3536205E-1,5.0267284E-3,-7.373658E-2,1.6041498E0,-1.4195787E0,2.4198432E-1,-2.0012288E0,1.0020016E0,6.7333305E-1,-1.029529E-3,-3.967705E-1,3.7778842E-1,3.042171E-1,1.6264337E0,1.2530261E0,-3.0636454E-1,-7.907543E-1,3.7313107E-1],"categories":[0,1,2,3,4,5,6,7,8,9,10,12,13,14,15,16,17,18,19,20,0,1,2,3,4,5,6,7,8,9,10,11,12,13,14,15,17,18,19,20,21],"categories_nodes":[0,23],"categories_segments":[0,20],"categories_sizes":[20,21],"default_left":[1,0,0,0,0,0,0,0,0,0,0,0,0,0,0,0,0,0,0,0,0,0,0,1,0,0,0,0,0],"id":14,"left_children":[1,3,5,7,9,-1,11,-1,-1,13,15,17,19,21,-1,-1,-1,-1,-1,23,-1,-1,-1,25,-1,-1,27,-1,-1],"loss_changes":[2.8356655E1,1.2926326E2,3.3195593E2,2.889714E2,3.2491787E1,0E0,8.998023E0,0E0,0E0,2.9669212E1,2.4965393E1,7.796702E1,1.375476E1,5.7486725E0,0E0,0E0,0E0,0E0,0E0,1.8223957E1,0E0,0E0,0E0,2.3408169E1,0E0,0E0,1.3085915E1,0E0,0E0],"parents":[2147483647,0,0,1,1,2,2,3,3,4,4,6,6,9,9,10,10,11,11,12,12,13,13,19,19,23,23,26,26],"right_children":[2,4,6,8,10,-1,12,-1,-1,14,16,18,20,22,-1,-1,-1,-1,-1,24,-1,-1,-1,26,-1,-1,28,-1,-1],"split_conditions":[NaN,3.5361435E1,1.1E1,3.7111995E0,5.447812E0,-5.442085E0,1.3E1,-4.7323358E-1,6.276155E0,3E0,5.99933E0,3.2746568E0,1.8E1,3.1354504E0,1.6041498E0,-1.4195787E0,2.4198432E-1,-2.0012288E0,1.0020016E0,1.7E1,-1.029529E-3,-3.967705E-1,3.7778842E-1,NaN,1.6264337E0,1.2530261E0,1E0,-7.907543E-1,3.7313107E-1],"split_indices":[4,0,0,7,7,0,0,0,0,8,7,7,0,7,0,0,0,0,0,0,0,0,0,4,0,0,8,0,0],"split_type":[1,0,0,0,0,0,0,0,0,0,0,0,0,0,0,0,0,0,0,0,0,0,0,1,0,0,0,0,0],"sum_hessian":[3.243E3,5.5E1,3.188E3,1.2E1,4.3E1,5E0,3.183E3,7E0,5E0,2.5E1,1.8E1,1.6E1,3.167E3,1.8E1,7E0,1.1E1,7E0,8E0,8E0,3E1,3.137E3,1E1,8E0,2.5E1,5E0,7E0,1.8E1,9E0,9E0],"tree_param":{"num_deleted":"0","num_feature":"10","num_nodes":"29","size_leaf_vector":"0"}},{"base_weights":[3.7787936E-4,3.5093994E0,-9.68699E-3,5.4145813E-2,-7.787959E-2,5.667787E-1,3.882432E-2,-1.2222046E0,-6.982705E-2,1.5485015E0,-8.118793E-1,-1.0265992E0,5.1752593E-2,8.46288E-3,-1.917325E-1,2.3943982E0,-1.562618E-2,6.302618E-1,-2.3475256E0,-1.0679182E-1,-2.0005994E0,-6.825181E-2,1.3174944E-1,6.997843E-1,-4.5263436E-2,-3.2581508E-1,2.4482073E-1,1.0502232E0,3.8332453E0,-5.386072E-1,5.1772493E-1,2.6896498E0,-2.1871386E0,-8.76651E-1,6.252065E-1,-8.937401E-1,-2.850278E-2,1.2984331E0,1.1998298E-1,1.6400406E0,2.3729695E-1,2.0196995E-2,-5.0209683E-1,-2.0481926E-1,-3.0941596E0,3.9869925E-1,-1.206305E0,1.128555E0,6.03439E-2,5.108015E-2,-2.2617047E0,-1.2993724E-2,-1.0330672E0,-3.6197698E-1,1.641286E-1,8.947782E-1,2.3839924E0,-5.6472E-1,3.7280467E-1,-6.6735195E-3,1.7028294E0,-1.3075063E0,-3.262271E-1,-1.0422085E-1,-6.301352E-1,-3.664489E-1,-7.002877E0,-2.0881478E-1,9.766966E-1,2.3650436E-1,-5.697392E-1,1.7347524E-1,-5.947025E-2,-1.0321503E-1,-1.3702661E0,3.0149642E-1,5.778213E-2,1.1316975E0,-5.5525165E-2,5.7044077E-1,-4.018886E-2,-1.5047722E-1,6.561964E-2,1.0847944E-1,-4.7971213E-1,5.222227E-2,-2.904398E-1,7.7037376E-1,-7.043175E-1,-1.0844294E0,2.363058E-1,-3.4299672E-1,1.3988199E0,2.178889E0,4.9578753E-1],"categories":[0,1,2,4,5,6,12,18,19,20,14,16,0,0,0,0,1,2,3,4,5,6,7,8,9,10,11,13,14,15,16,17,18,19,21,9,2,0,1,2,3,4,5,6,7,8,9,10,11,12,13,14,16,3,7,14,15,17,16,0,1,3,4,5,12,18,20,5,12],"categories_nodes":[2,5,8,10,12,23,36,44,49,51,53,62,63],"categories_segments":[0,10,12,13,14,15,35,36,37,53,58,59,67],"categories_sizes":[10,2,1,1,1,20,1,1,16,5,1,8,2],"default_left":[0,0,1,0,0,1,0,0,1,0,1,0,1,0,0,0,0,0,0,0,0,0,0,1,0,0,0,0,0,0,0,0,0,0,0,0,1,0,0,0,0,0,0,0,1,0,0,0,0,1,0,1,0,1,0,0,0,0,0,0,0,0,1,1,0,0,0,0,0,0,0,0,0,0,0,0,0,0,0,0,0,0,0,0,0,0,0,0,0,0,0,0,0,0,0],"id":15,"left_children":[1,-1,3,5,7,9,11,-1,13,15,17,19,21,23,25,27,29,31,-1,33,-1,35,37,39,41,43,45,47,-1,-1,-1,-1,-1,-1,-1,49,51,-1,53,55,57,59,61,63,65,67,-1,-1,-1,69,-1,71,-1,73,75,77,-1,-1,79,81,-1,-1,83,85,87,89,-1,91,93,-1,-1,-1,-1,-1,-1,-1,-1,-1,-1,-1,-1,-1,-1,-1,-1,-1,-1,-1,-1,-1,-1,-1,-1,-1,-1],"loss_changes":[1.636773E2,0E0,1.4094704E1,1.31253195E1,2.0967886E1,6.627141E1,2.2402569E1,0E0,1.4875086E1,3.772679E1,7.620021E1,3.269583E1,1.5417252E1,3.5282307E1,3.5716465E1,7.375698E1,6.262237E0,1.6882077E2,0E0,1.6023556E1,0E0,2.1069204E1,1.9424097E1,2.959309E1,2.6365896E1,1.5594107E2,4.3802574E1,7.244488E0,0E0,0E0,0E0,0E0,0E0,0E0,0E0,6.522728E1,1.3761263E1,0E0,2.0401878E1,2.8083683E1,6.7289867E0,5.0018963E1,2.6237148E1,1.9113945E1,3.6570978E2,4.697937E1,0E0,0E0,0E0,5.4709053E0,0E0,1.1412857E1,0E0,2.7409836E1,1.9066414E1,1.1667488E1,0E0,0E0,7.9168463E0,1.5979451E1,0E0,0E0,1.7072573E1,2.0155767E1,5.6196045E1,1.2335345E1,0E0,4.113899E1,3.817314E1,0E0,0E0,0E0,0E0,0E0,0E0,0E0,0E0,0E0,0E0,0E0,0E0,0E0,0E0,0E0,0E0,0E0,0E0,0E0,0E0,0E0,0E0,0E0,0E0,0E0,0E0],"parents":[2147483647,0,0,2,2,3,3,4,4,5,5,6,6,8,8,9,9,10,10,11,11,12,12,13,13,14,14,15,15,16,16,17,17,19,19,21,21,22,22,23,23,24,24,25,25,26,26,27,27,35,35,36,36,38,38,39,39,40,40,41,41,42,42,43,43,44,44,45,45,49,49,51,51,53,53,54,54,55,55,58,58,59,59,62,62,63,63,64,64,65,65,67,67,68,68],"right_children":[2,-1,4,6,8,10,12,-1,14,16,18,20,22,24,26,28,30,32,-1,34,-1,36,38,40,42,44,46,48,-1,-1,-1,-1,-1,-1,-1,50,52,-1,54,56,58,60,62,64,66,68,-1,-1,-1,70,-1,72,-1,74,76,78,-1,-1,80,82,-1,-1,84,86,88,90,-1,92,94,-1,-1,-1,-1,-1,-1,-1,-1,-1,-1,-1,-1,-1,-1,-1,-1,-1,-1,-1,-1,-1,-1,-1,-1,-1,-1],"split_conditions":[1.1E1,3.5093994E0,NaN,1E0,1.3E1,NaN,2E1,-1.2222046E0,NaN,4.549519E0,NaN,3.7648818E0,NaN,3.9E1,4.6932464E0,3.4832513E0,4.8E1,1.9E1,-2.3475256E0,3.0030782E0,-2.0005994E0,2.8E1,2.1E1,NaN,5.447812E0,4.376874E0,9.6E1,2E1,3.8332453E0,-5.386072E-1,5.1772493E-1,2.6896498E0,-2.1871386E0,-8.76651E-1,6.252065E-1,3.4832513E0,NaN,1.2984331E0,3.9E1,3.6E1,1.6216702E0,5.3071523E0,4.9E1,3.4832513E0,NaN,2E0,-1.206305E0,1.128555E0,6.03439E-2,NaN,-2.2617047E0,NaN,-1.0330672E0,NaN,5.5E1,3.1E1,2.3839924E0,-5.6472E-1,3.7648818E0,5.548638E1,1.7028294E0,-1.3075063E0,NaN,NaN,4.3E1,5.5E1,-7.002877E0,5.1E1,4.9E1,2.3650436E-1,-5.697392E-1,1.7347524E-1,-5.947025E-2,-1.0321503E-1,-1.3702661E0,3.0149642E-1,5.778213E-2,1.1316975E0,-5.5525165E-2,5.7044077E-1,-4.018886E-2,-1.5047722E-1,6.561964E-2,1.0847944E-1,-4.7971213E-1,5.222227E-2,-2.904398E-1,7.7037376E-1,-7.043175E-1,-1.0844294E0,2.363058E-1,-3.4299672E-1,1.3988199E0,2.178889E0,4.9578753E-1],"split_indices":[0,0,5,8,0,5,0,0,1,7,3,7,3,0,7,7,0,0,0,7,0,0,0,5,7,7,0,0,0,0,0,0,0,0,0,7,5,0,0,0,7,7,0,7,5,8,0,0,0,5,0,5,0,5,0,0,0,0,7,0,0,0,5,5,0,0,0,0,0,0,0,0,0,0,0,0,0,0,0,0,0,0,0,0,0,0,0,0,0,0,0,0,0,0,0],"split_type":[0,0,1,0,0,1,0,0,1,0,1,0,1,0,0,0,0,0,0,0,0,0,0,1,0,0,0,0,0,0,0,0,0,0,0,0,1,0,0,0,0,0,0,0,1,0,0,0,0,1,0,1,0,1,0,0,0,0,0,0,0,0,1,1,0,0,0,0,0,0,0,0,0,0,0,0,0,0,0,0,0,0,0,0,0,0,0,0,0,0,0,0,0,0,0],"sum_hessian":[3.243E3,6E0,3.237E3,1.672E3,1.565E3,4.8E1,1.624E3,7E0,1.558E3,2.8E1,2E1,1.9E1,1.605E3,9.49E2,6.09E2,1.8E1,1E1,1.3E1,7E0,1.3E1,6E0,6.42E2,9.63E2,6.8E1,8.81E2,4.66E2,1.43E2,1.3E1,5E0,5E0,5E0,7E0,6E0,6E0,7E0,2.9E1,6.13E2,6E0,9.57E2,2.2E1,4.6E1,7.71E2,1.1E2,4.47E2,1.9E1,1.33E2,1E1,8E0,5E0,2.1E1,8E0,6.07E2,6E0,8E1,8.77E2,1.6E1,6E0,5E0,4.1E1,7.63E2,8E0,1.2E1,9.8E1,3.62E2,8.5E1,1.4E1,5E0,6.5E1,6.8E1,1.6E1,5E0,1.31E2,4.76E2,7.1E1,9E0,2.05E2,6.72E2,9E0,7E0,2E1,2.1E1,2.48E2,5.15E2,4.2E1,5.6E1,2.3E2,1.32E2,1.5E1,7E1,5E0,9E0,5.8E1,7E0,7E0,6.1E1],"tree_param":{"num_deleted":"0","num_feature":"10","num_nodes":"95","size_leaf_vector":"0"}},{"base_weights":[-2.369269E-4,1.3562022E0,-4.727085E-3,6.1618825E-3,-5.861948E-1,-9.5634395E-1,1.0878328E-2,-3.3007014E0,9.258404E-3,-1.7321856E0,3.0765417E-1,2.1322338E-1,-1.9465105E-3,6.296401E-1,-1.2643927E0,4.6304443E-1,-4.38342E-1,1.6552423E-1,-1.6276347E-2,1.4929727E0,7.0600234E-2,1.4497862E0,3.6812463E-1,1.7292823E-1,-9.9718636E-1,1.7015233E0,5.6682557E-2,1.01482E-2,-1.3311896E-1,1.5635256E0,2.069632E-1,5.698801E-1,-1.7504612E-1,-2.9792057E-2,1.0553681E0,-5.252309E-1,8.129671E-1,-1.7710349E-1,-2.1900036E0,2.3207627E-1,1.7845297E0,1.7049482E-1,-2.5079998E-1,-9.712005E-2,5.37744E-2,1.7659746E-1,-2.2048731E-1,7.4107355E-1,-1.8198624E-1,1.6764439E0,1.3819584E-1,-1.0809847E0,6.3847536E-1,1.5132627E0,-2.8715578E-1,-2.6855276E0,-2.4111353E-1,-3.8490778E-1,1.57736E-1,9.771233E-2,-4.9532616E-1,2.4581852E-3,-2.848738E-1,-3.2799578E-1,5.159637E-2,-2.2231475E-1,4.1706845E-1,-2.557937E-1,6.160502E-2],"categories":[13,21,0,1,9,2,0,1,3,9,16,0,1,2,3,4,5,6,7,8,10,12,13,14,15,16,18,19,20,21,0,0,1,2,3,4,5,6,7,8,9,10,11,12,13,14,15,17,18,19,20,21,0,1,3,4,5,6,7,8,9,10,11,12,13,15,16,17,18,0,1,3,4,5,6,7,8,9,10,11,12,13,14,15,16,17,18,19,20,21,2,5,6,8,10,20,0,0,1,2,3,4,5,6,7,8,9,10,11,12,13,15,16,17,18,19,0,1,2,3,4,15,17,0,0],"categories_nodes":[2,5,8,11,12,13,15,16,17,18,19,20,26,34,42],"categories_segments":[0,2,5,6,11,30,31,52,69,90,96,97,116,123,124],"categories_sizes":[2,3,1,5,19,1,21,17,21,6,1,19,7,1,1],"default_left":[0,0,1,0,0,1,0,0,1,0,0,1,1,1,0,1,1,1,1,1,1,0,0,0,0,0,1,0,0,0,0,0,0,0,1,0,0,0,0,0,0,0,1,0,0,0,0,0,0,0,0,0,0,0,0,0,0,0,0,0,0,0,0,0,0,0,0,0,0],"id":16,"left_children":[1,-1,3,5,7,9,11,-1,13,-1,-1,15,17,19,-1,21,23,25,27,29,31,-1,33,35,37,39,41,43,45,-1,-1,-1,-1,47,49,51,53,-1,55,-1,-1,57,59,61,63,65,67,-1,-1,-1,-1,-1,-1,-1,-1,-1,-1,-1,-1,-1,-1,-1,-1,-1,-1,-1,-1,-1,-1],"loss_changes":[2.8224455E1,0E0,2.0493975E1,1.4429801E1,1.463134E2,3.339122E1,8.20703E0,0E0,5.9700653E1,0E0,0E0,3.0784527E1,7.1396365E0,1.901147E1,0E0,2.045394E1,1.802048E1,3.9155655E1,8.462006E0,1.3414753E1,5.9430776E0,0E0,3.542952E1,1.1608147E1,2.4133951E1,1.7580349E1,7.702845E0,1.0464094E1,1.3698003E1,0E0,0E0,0E0,0E0,2.0808216E1,5.4353554E1,1.9012959E1,2.2716835E1,0E0,3.1245007E1,0E0,0E0,6.402728E0,1.066021E1,2.015858E1,1.6568233E1,2.319425E1,1.7654488E1,0E0,0E0,0E0,0E0,0E0,0E0,0E0,0E0,0E0,0E0,0E0,0E0,0E0,0E0,0E0,0E0,0E0,0E0,0E0,0E0,0E0,0E0],"parents":[2147483647,0,0,2,2,3,3,4,4,5,5,6,6,8,8,11,11,12,12,13,13,15,15,16,16,17,17,18,18,19,19,20,20,22,22,23,23,24,24,25,25,26,26,27,27,28,28,33,33,34,34,35,35,36,36,38,38,41,41,42,42,43,43,44,44,45,45,46,46],"right_children":[2,-1,4,6,8,10,12,-1,14,-1,-1,16,18,20,-1,22,24,26,28,30,32,-1,34,36,38,40,42,44,46,-1,-1,-1,-1,48,50,52,54,-1,56,-1,-1,58,60,62,64,66,68,-1,-1,-1,-1,-1,-1,-1,-1,-1,-1,-1,-1,-1,-1,-1,-1,-1,-1,-1,-1,-1,-1],"split_conditions":[1.2E1,1.3562022E0,NaN,1.3E1,3.2E1,NaN,2.7E1,-3.3007014E0,NaN,-1.7321856E0,3.0765417E-1,NaN,NaN,NaN,-1.2643927E0,NaN,NaN,NaN,NaN,NaN,NaN,1.4497862E0,3.4832513E0,3.2746568E0,3.4832513E0,2E0,NaN,2.8852048E0,2.683836E0,1.5635256E0,2.069632E-1,5.698801E-1,-1.7504612E-1,1.606527E0,NaN,2.1E1,2.2E1,-1.7710349E-1,1E0,2.3207627E-1,1.7845297E0,4E1,NaN,2.309261E0,3.4E1,1.699889E0,4.4348593E0,7.4107355E-1,-1.8198624E-1,1.6764439E0,1.3819584E-1,-1.0809847E0,6.3847536E-1,1.5132627E0,-2.8715578E-1,-2.6855276E0,-2.4111353E-1,-3.8490778E-1,1.57736E-1,9.771233E-2,-4.9532616E-1,2.4581852E-3,-2.848738E-1,-3.2799578E-1,5.159637E-2,-2.2231475E-1,4.1706845E-1,-2.557937E-1,6.160502E-2],"split_indices":[0,0,4,0,0,4,0,0,5,0,0,4,4,6,0,5,5,5,5,3,5,0,7,7,7,8,5,7,7,0,0,0,0,7,3,0,0,0,8,0,0,0,3,7,0,7,7,0,0,0,0,0,0,0,0,0,0,0,0,0,0,0,0,0,0,0,0,0,0],"split_type":[0,0,1,0,0,1,0,0,1,0,0,1,1,1,0,1,1,1,1,1,1,0,0,0,0,0,1,0,0,0,0,0,0,0,1,0,0,0,0,0,0,0,1,0,0,0,0,0,0,0,0,0,0,0,0,0,0,0,0,0,0,0,0,0,0,0,0,0,0],"sum_hessian":[3.243E3,7E0,3.236E3,3.177E3,5.9E1,1.5E1,3.162E3,7E0,5.2E1,7E0,8E0,1.88E2,2.974E3,3.9E1,1.3E1,1.36E2,5.2E1,2.34E2,2.74E3,1.5E1,2.4E1,7E0,1.29E2,2.5E1,2.7E1,1.5E1,2.19E2,2.235E3,5.05E2,9E0,6E0,7E0,1.7E1,8.2E1,4.7E1,1.2E1,1.3E1,1.7E1,1E1,6E0,9E0,1.6E2,5.9E1,6.46E2,1.589E3,1.11E2,3.94E2,1.4E1,6.8E1,1.8E1,2.9E1,7E0,5E0,6E0,7E0,5E0,5E0,1.1E1,1.49E2,3.2E1,2.7E1,4.88E2,1.58E2,5.8E1,1.531E3,5.1E1,6E1,2.68E2,1.26E2],"tree_param":{"num_deleted":"0","num_feature":"10","num_nodes":"69","size_leaf_vector":"0"}},{"base_weights":[-9.140925E-5,1.9907981E-2,-3.0858812E-1,5.224302E-1,9.72464E-3,-4.3921375E0,-1.3733247E-1,2.3723245E0,-1.1349455E-1,3.8623527E-2,-1.2818968E-1,2.4112134E-1,-5.310789E-1,3.6038198E0,-6.5236646E-1,1.1354548E0,-3.4778845E-1,8.010227E-3,4.7321355E-1,2.8892031E-3,-7.813278E-1,-7.509773E-2,8.8444465E-1,-1.1750551E-1,-6.871979E-1,-1.7685871E0,1.4838384E-1,5.4041076E-2,-8.4206425E-2,-4.4891782E-2,2.8098392E0,7.979564E-1,-3.8756084E-2,-3.063056E0,-2.6399266E-2,9.6075493E-1,-2.0394778E-1,1.514436E0,-5.043532E-1,2.050569E-1,-4.6592253E-1,-8.558277E-1,7.174764E-2,-2.3280126E-1,-2.3134396E0,4.307244E-1,4.333252E-2,-2.6550801E-2,-3.7396312E-1,-3.2546515E0,2.671531E-1,1.0242586E1,9.8481335E-2,1.8307215E0,-4.220599E-1,-7.2159326E-1,-7.587897E-3,-1.8326217E-1,-6.7862453E0,6.695972E-1,-9.349224E-2,-3.6532573E-2,-5.21741E-1,-1.6931811E-1,2.2668707E0,-9.90834E-1,1.812302E-1,1.1739471E-1,1.1739963E0,-1.2826629E-1,8.215807E-2,-5.9861284E-1,-8.731364E-3,-2.1603438E-1,-2.700229E0,5.1776993E-1,-2.1122533E-1,1.2104334E0,-1.085773E0,1.8440365E0,6.2039614E-1,2.905707E-1,-8.293475E-2,-8.210061E-1,8.9402515E-1,8.705669E-2,-5.474644E-1,2.9103415E0,8.848242E-1,-5.600281E-1,-1.2641488E0,5.0191176E-1,-4.4852883E-1,1.4225358E-1,-2.0400077E-1,5.2092236E-1,4.997195E-2,1.2040986E-1,-6.3163765E-2,2.3800774E-1,-3.3444616E-1,6.43777E-1,-4.02102E-1,3.3750743E-1,-6.523595E-1,-3.6520562E-1,-1.372935E0,8.542692E-1,9.423831E-2,-1.1398454E-1,1.5076753E-1,-8.6417186E-1,1.5063472E-2,-6.1591E-1,-2.0516136E0],"categories":[19,0,1,2,3,4,5,6,7,8,9,10,11,12,14,15,16,17,18,19,20,0,1,3,4,5,6,7,8,9,10,11,12,13,14,15,16,17,18,19,20,21,2,12,16,17,19,0,21,2,3,5,0,0,1,3,4,5,6,7,14,18,0,1,2,4,5,6,7,8,9,10,11,12,13,14,15,16,17,18,19,20,21,16,5,9,0,1,3,4,5,6,7,8,9,10,11,12,13,14,15,16,17,18,19,20,21,16,0,15,0,3,0,1,4,5,6,17,18,20,0,1,2,3,4,6,7,8,9,10,11,12,13,14,15,16,18,19,20,0,0,1,12,15,16,17,19,20,0,1,2,3,4,5,6,7,8,9,10,11,12,13,15,16,17,18,19,20,21,0,0,1,2,3,4,5,6,7,8,9,10,11,13,14,15,18,19,20,0,0,1,2,5,0,1,2,3,4,6,7,8,9,0,1,3,4,5,6,7,8,9,10,11,12,13,14,15,16,17,18,19,20,21,0],"categories_nodes":[0,1,3,6,7,8,10,11,17,21,23,28,30,31,32,36,45,48,50,52,53,56,64,65,67,69,75,76,81,89],"categories_segments":[0,1,21,42,47,48,49,52,53,62,83,84,86,107,108,109,110,111,112,120,139,140,148,169,170,188,189,193,202,223],"categories_sizes":[1,20,21,5,1,1,3,1,9,21,1,2,21,1,1,1,1,1,8,19,1,8,21,1,18,1,4,9,21,1],"default_left":[1,1,0,1,0,0,1,1,1,0,1,1,0,0,0,0,0,1,0,0,0,1,0,1,0,0,0,0,1,0,1,1,1,0,0,0,1,0,0,0,0,0,0,0,0,1,0,0,1,0,1,0,1,1,0,0,1,0,0,0,0,0,0,0,1,1,0,1,0,1,0,0,0,0,0,1,1,0,0,0,0,1,0,0,0,0,0,0,0,1,0,0,0,0,0,0,0,0,0,0,0,0,0,0,0,0,0,0,0,0,0,0,0,0,0],"id":17,"left_children":[1,3,5,7,9,-1,11,13,15,17,19,21,23,-1,-1,-1,25,27,29,31,33,35,37,39,41,43,-1,45,47,49,51,53,55,57,59,-1,61,63,-1,-1,-1,65,-1,-1,-1,67,69,71,73,-1,75,-1,77,79,-1,-1,81,83,-1,-1,-1,85,-1,-1,87,89,-1,91,-1,93,95,-1,97,99,-1,101,103,-1,105,-1,-1,107,109,-1,-1,-1,-1,-1,-1,111,113,-1,-1,-1,-1,-1,-1,-1,-1,-1,-1,-1,-1,-1,-1,-1,-1,-1,-1,-1,-1,-1,-1,-1,-1],"loss_changes":[2.0014643E1,1.5587481E1,2.0135352E2,7.130643E1,1.1905381E1,0E0,2.874938E1,1.4457486E2,1.8783922E1,3.285291E1,4.4305656E1,2.0071175E1,6.0611706E0,0E0,0E0,0E0,3.239766E1,9.797174E0,1.9678853E2,1.43027725E1,1.4895944E2,1.2543802E1,3.3406464E1,6.059025E0,9.165737E0,2.4821579E1,0E0,6.2006016E0,1.2833675E1,1.924399E2,9.4489703E2,3.1658104E1,1.2689444E1,4.0970972E2,6.963373E0,0E0,5.5606213E0,3.132977E1,0E0,0E0,0E0,8.631245E0,0E0,0E0,0E0,1.6499434E1,9.982239E0,9.468252E0,6.9726906E1,0E0,1.5100837E1,0E0,4.8252537E1,8.319721E0,0E0,0E0,8.964477E0,2.3150476E1,0E0,0E0,0E0,5.7467313E0,0E0,0E0,2.8658333E1,5.5921783E0,0E0,1.5913542E1,0E0,1.4984479E1,8.682284E0,0E0,9.266334E0,1.7910194E1,0E0,3.647903E1,2.1962915E1,0E0,6.6493587E0,0E0,0E0,1.1590303E1,7.609179E0,0E0,0E0,0E0,0E0,0E0,0E0,8.054521E0,1.8245426E1,0E0,0E0,0E0,0E0,0E0,0E0,0E0,0E0,0E0,0E0,0E0,0E0,0E0,0E0,0E0,0E0,0E0,0E0,0E0,0E0,0E0,0E0,0E0,0E0],"parents":[2147483647,0,0,1,1,2,2,3,3,4,4,6,6,7,7,8,8,9,9,10,10,11,11,12,12,16,16,17,17,18,18,19,19,20,20,21,21,22,22,23,23,24,24,25,25,27,27,28,28,29,29,30,30,31,31,32,32,33,33,34,34,36,36,37,37,41,41,45,45,46,46,47,47,48,48,50,50,52,52,53,53,56,56,57,57,61,61,64,64,65,65,67,67,69,69,70,70,72,72,73,73,75,75,76,76,78,78,81,81,82,82,89,89,90,90],"right_children":[2,4,6,8,10,-1,12,14,16,18,20,22,24,-1,-1,-1,26,28,30,32,34,36,38,40,42,44,-1,46,48,50,52,54,56,58,60,-1,62,64,-1,-1,-1,66,-1,-1,-1,68,70,72,74,-1,76,-1,78,80,-1,-1,82,84,-1,-1,-1,86,-1,-1,88,90,-1,92,-1,94,96,-1,98,100,-1,102,104,-1,106,-1,-1,108,110,-1,-1,-1,-1,-1,-1,112,114,-1,-1,-1,-1,-1,-1,-1,-1,-1,-1,-1,-1,-1,-1,-1,-1,-1,-1,-1,-1,-1,-1,-1,-1],"split_conditions":[NaN,NaN,1E0,NaN,4.842539E0,-4.3921375E0,NaN,NaN,NaN,4.376874E0,NaN,NaN,2.852854E0,3.6038198E0,-6.5236646E-1,1.1354548E0,2E0,NaN,3E0,1E0,5.3371444E0,NaN,3.952779E0,NaN,2E0,3.2746568E0,1.4838384E-1,1.3139694E0,NaN,4.4348593E0,NaN,NaN,NaN,3E0,5.5538893E0,9.6075493E-1,NaN,2.6151736E0,-5.043532E-1,2.050569E-1,-4.6592253E-1,5.534574E0,7.174764E-2,-2.3280126E-1,-2.3134396E0,NaN,2.0658436E0,1.1653342E0,NaN,-3.2546515E0,NaN,1.0242586E1,NaN,NaN,-4.220599E-1,-7.2159326E-1,NaN,4.885719E0,-6.7862453E0,6.695972E-1,-9.349224E-2,4.769583E0,-5.21741E-1,-1.6931811E-1,NaN,NaN,1.812302E-1,NaN,1.1739963E0,NaN,2.1335251E0,-5.9861284E-1,2.309261E0,3.0030782E0,-2.700229E0,NaN,NaN,1.2104334E0,4.549519E0,1.8440365E0,6.2039614E-1,NaN,3E0,-8.210061E-1,8.9402515E-1,8.705669E-2,-5.474644E-1,2.9103415E0,8.848242E-1,NaN,4.769583E0,5.0191176E-1,-4.4852883E-1,1.4225358E-1,-2.0400077E-1,5.2092236E-1,4.997195E-2,1.2040986E-1,-6.3163765E-2,2.3800774E-1,-3.3444616E-1,6.43777E-1,-4.02102E-1,3.3750743E-1,-6.523595E-1,-3.6520562E-1,-1.372935E0,8.542692E-1,9.423831E-2,-1.1398454E-1,1.5076753E-1,-8.6417186E-1,1.5063472E-2,-6.1591E-1,-2.0516136E0],"split_indices":[4,4,8,5,7,0,5,6,4,7,5,1,7,0,0,0,8,5,8,8,7,5,7,5,2,7,0,7,4,7,5,4,9,8,7,0,5,7,0,0,0,7,0,0,0,1,7,7,5,0,5,0,5,6,0,0,5,7,0,0,0,7,0,0,5,6,0,5,0,6,7,0,7,7,0,4,4,0,7,0,0,4,8,0,0,0,0,0,0,1,7,0,0,0,0,0,0,0,0,0,0,0,0,0,0,0,0,0,0,0,0,0,0,0,0],"split_type":[1,1,0,1,0,0,1,1,1,0,1,1,0,0,0,0,0,1,0,0,0,1,0,1,0,0,0,0,1,0,1,1,1,0,0,0,1,0,0,0,0,0,0,0,0,1,0,0,1,0,1,0,1,1,0,0,1,0,0,0,0,0,0,0,1,1,0,1,0,1,0,0,0,0,0,1,1,0,0,0,0,1,0,0,0,0,0,0,0,1,0,0,0,0,0,0,0,0,0,0,0,0,0,0,0,0,0,0,0,0,0,0,0,0,0],"sum_hessian":[3.243E3,3.046E3,1.97E2,6E1,2.986E3,5E0,1.92E2,1.5E1,4.5E1,2.469E3,5.17E2,9.8E1,9.4E1,8E0,7E0,5E0,4E1,2.307E3,1.62E2,4.31E2,8.6E1,6.6E1,3.2E1,2.6E1,6.8E1,1.1E1,2.9E1,1.539E3,7.68E2,1.33E2,2.9E1,2.1E1,4.1E2,2.1E1,6.5E1,5E0,6.1E1,2.3E1,9E0,1.5E1,1.1E1,5.6E1,1.2E1,6E0,5E0,4.2E1,1.497E3,6.41E2,1.27E2,8E0,1.25E2,5E0,2.4E1,1.2E1,9E0,1.2E1,3.98E2,1.5E1,6E0,6E0,5.9E1,4.7E1,1.4E1,7E0,1.6E1,5E1,6E0,3.4E1,8E0,2.76E2,1.221E3,1.3E1,6.28E2,1.22E2,5E0,8.2E1,4.3E1,1E1,1.4E1,6E0,6E0,8E1,3.18E2,9E0,6E0,3.9E1,8E0,5E0,1.1E1,2E1,3E1,1.9E1,1.5E1,9.1E1,1.85E2,1.9E1,1.202E3,1.95E2,4.33E2,3.9E1,8.3E1,6E1,2.2E1,2.2E1,2.1E1,9E0,5E0,1.1E1,6.9E1,2.51E2,6.7E1,9E0,1.1E1,2.5E1,5E0],"tree_param":{"num_deleted":"0","num_feature":"10","num_nodes":"115","size_leaf_vector":"0"}},{"base_weights":[-3.6237208E-4,7.252963E-2,-5.4839868E-2,5.4731636E0,4.168639E-2,-4.6417403E0,-3.528998E-2,5.851264E-2,-7.310313E-1,-7.3770237E-1,-2.7418237E-2,4.378872E-2,8.5631645E-1,-1.3303663E0,1.9995153E-2,1.0962161E0,-1.9902275E0,1.521238E0,-3.7193485E-2,1.21346936E-1,-5.367312E-2,1.1458104E0,-3.2360354E-1,-1.2498888E0,-1.8036525E-1,9.3496256E-2,-2.2731621E0,1.6406813E0,2.8755233E-1,-2.6143188E-2,-5.105768E-1,-8.630514E-1,1.53504E-1,1.3601009E0,-9.43016E-2,1.8745334E-1,-4.8908953E-2,6.0783905E-1,-8.02942E-1,-1.7633565E-1,-1.7094342E0,4.9322987E-1,9.486263E-2,3.442145E0,-2.8022897E-1,-1.476102E0,-6.0935933E-2,4.669493E-1,-7.122983E-2,-2.3415945E-1,-9.438376E-3,-1.0121766E0,1.2446836E-2,1.1740822E0,1.9053262E-1,-6.9552925E-3,2.2407787E-1,-2.1791322E0,-2.3105131E-1,2.9902076E-3,-3.4044227E-1,9.0931475E-2,1.4301735E0,-2.0892394E-1,3.7640688E-1,-6.688645E-2,-4.9132314E-1,2.9998535E-1,-3.891058E-2,-3.6826527E-1,-1.4474385E0],"categories":[0,21,0,0,1,2,3,4,5,16,0,1,3,4,5,6,13,0,0,1,2,3,4,6,7,8,9,10,11,12,13,14,15,16,17,18,19,21,6,0,1,2,3,4,5,6,7,8,9,10,11,12,13,14,15,16,17,18,20,21,9,16],"categories_nodes":[0,4,8,9,11,12,29,33,41,49],"categories_segments":[0,1,2,3,10,17,18,38,39,60],"categories_sizes":[1,1,1,7,7,1,20,1,21,2],"default_left":[1,0,0,0,1,0,0,0,1,1,0,1,1,0,0,0,0,0,0,0,0,0,0,0,0,0,0,0,0,1,0,0,0,1,0,0,0,0,0,0,0,1,0,0,0,0,0,0,0,1,0,0,0,0,0,0,0,0,0,0,0,0,0,0,0,0,0,0,0,0,0],"id":18,"left_children":[1,3,5,-1,7,-1,9,11,13,15,17,19,21,23,-1,-1,25,27,29,31,33,-1,-1,-1,-1,-1,-1,-1,-1,35,37,39,41,43,45,47,49,-1,51,-1,-1,53,55,-1,-1,57,59,61,63,65,67,69,-1,-1,-1,-1,-1,-1,-1,-1,-1,-1,-1,-1,-1,-1,-1,-1,-1,-1,-1],"loss_changes":[1.2881843E1,3.3133887E2,2.3856267E2,0E0,1.799657E1,0E0,1.022722E1,1.5880543E1,1.3448944E1,6.071058E1,2.7754446E1,1.0052903E1,2.5594883E1,7.82662E0,0E0,0E0,3.6260807E1,1.0023228E1,9.51641E0,2.3507027E1,3.3924706E1,0E0,0E0,0E0,0E0,0E0,0E0,0E0,0E0,8.657738E0,1.7079243E1,2.2369764E1,1.4270634E1,1.0431191E2,2.6396069E1,1.2416237E1,1.1760158E1,0E0,5.933466E0,0E0,0E0,2.7383041E1,1.4460127E1,0E0,0E0,2.4812033E1,1.5549309E1,4.369451E1,1.2464755E1,1.8281208E1,2.6823639E1,1.3566498E1,0E0,0E0,0E0,0E0,0E0,0E0,0E0,0E0,0E0,0E0,0E0,0E0,0E0,0E0,0E0,0E0,0E0,0E0,0E0],"parents":[2147483647,0,0,1,1,2,2,4,4,6,6,7,7,8,8,9,9,10,10,11,11,12,12,13,13,16,16,17,17,18,18,19,19,20,20,29,29,30,30,31,31,32,32,33,33,34,34,35,35,36,36,38,38,41,41,42,42,45,45,46,46,47,47,48,48,49,49,50,50,51,51],"right_children":[2,4,6,-1,8,-1,10,12,14,16,18,20,22,24,-1,-1,26,28,30,32,34,-1,-1,-1,-1,-1,-1,-1,-1,36,38,40,42,44,46,48,50,-1,52,-1,-1,54,56,-1,-1,58,60,62,64,66,68,70,-1,-1,-1,-1,-1,-1,-1,-1,-1,-1,-1,-1,-1,-1,-1,-1,-1,-1,-1],"split_conditions":[NaN,1.1E1,1.6E1,5.4731636E0,NaN,-4.6417403E0,1.9E1,4E0,NaN,NaN,1E0,NaN,NaN,3E0,1.9995153E-2,1.0962161E0,1.8E1,2.2E1,4E0,1.8E1,1.9E1,1.1458104E0,-3.2360354E-1,-1.2498888E0,-1.8036525E-1,9.3496256E-2,-2.2731621E0,1.6406813E0,2.8755233E-1,NaN,2E0,1E0,3.3E1,NaN,2.5E1,6.1E1,4.9E1,6.0783905E-1,1.94E2,-1.7633565E-1,-1.7094342E0,NaN,6.6E1,3.442145E0,-2.8022897E-1,1E0,3E0,5.548638E1,9.1E1,NaN,5.1E1,1.51E2,1.2446836E-2,1.1740822E0,1.9053262E-1,-6.9552925E-3,2.2407787E-1,-2.1791322E0,-2.3105131E-1,2.9902076E-3,-3.4044227E-1,9.0931475E-2,1.4301735E0,-2.0892394E-1,3.7640688E-1,-6.688645E-2,-4.9132314E-1,2.9998535E-1,-3.891058E-2,-3.6826527E-1,-1.4474385E0],"split_indices":[3,0,0,0,4,0,0,8,6,4,8,4,6,8,0,0,0,0,8,0,0,0,0,0,0,0,0,0,0,4,2,8,0,4,0,0,0,0,0,0,0,4,0,0,0,8,8,0,0,4,0,0,0,0,0,0,0,0,0,0,0,0,0,0,0,0,0,0,0,0,0],"split_type":[1,0,0,0,1,0,0,0,1,1,0,1,1,0,0,0,0,0,0,0,0,0,0,0,0,0,0,0,0,1,0,0,0,1,0,0,0,0,0,0,0,1,0,0,0,0,0,0,0,1,0,0,0,0,0,0,0,0,0,0,0,0,0,0,0,0,0,0,0,0,0],"sum_hessian":[3.243E3,1.387E3,1.856E3,5E0,1.382E3,5E0,1.851E3,1.353E3,2.9E1,2E1,1.831E3,1.329E3,2.4E1,1.6E1,1.3E1,7E0,1.3E1,1.1E1,1.82E3,7.4E2,5.89E2,1.5E1,9E0,1.1E1,5E0,5E0,8E0,6E0,5E0,1.779E3,4.1E1,2.3E1,7.17E2,1.6E1,5.73E2,1.71E2,1.608E3,7E0,3.4E1,1.7E1,6E0,1.05E2,6.12E2,5E0,1.1E1,1.3E1,5.6E2,8.2E1,8.9E1,2.82E2,1.326E3,2.7E1,7E0,1.6E1,8.9E1,4.18E2,1.94E2,5E0,8E0,4.86E2,7.4E1,6.8E1,1.4E1,6.5E1,2.4E1,2.18E2,6.4E1,1.26E2,1.2E3,1.9E1,8E0],"tree_param":{"num_deleted":"0","num_feature":"10","num_nodes":"71","size_leaf_vector":"0"}},{"base_weights":[1.0635997E-4,-2.0681984E0,6.0385107E-3,6.617147E-1,-1.9723107E-4,-1.0670853E0,1.1202564E0,2.560841E-2,-7.8851394E-2,1.72021E0,-3.0401888E-1,1.2691776E-2,7.136756E-1,-2.3115437E-2,-5.5837834E-1,3.0106124E-1,2.6826801E0,5.86873E-1,2.965515E-3,2.4900637E0,-4.127317E-2,-3.140551E-1,7.663357E-2,-2.7072543E-1,-1.3194367E0,6.653734E-1,2.9196625E0,-3.794692E-1,1.0680875E0,6.1065815E-2,-9.0470776E-2,3.8307956E-1,3.68635E0,-5.724256E-1,1.8246181E-1,2.1576512E-1,-1.8411583E-1,8.66575E-1,-5.4639906E-1,2.1774904E-1,-2.40409E0,-1.0556029E0,6.663135E-1,-2.1117318E-2,2.4897075E0,1.7011568E-1,-1.2742609E-1,-3.97982E-2,-1.1058387E0,5.289286E-1,-7.703452E-1,1.0564458E0,-4.5457405E-1,1.3771538E-1,1.7678565E0,-1.4640415E0,-1.5244523E-2,-8.64846E-1,5.167706E-1,5.287431E-1,-4.4301596E-1,6.725668E-1,-3.741181E-1,